{"learner":{"attributes":{"scikit_learn":"{\"_estimator_type\": \"classifier\"}"},"feature_names":[],"feature_types":[],"gradient_booster":{"model":{"cats":{"enc":[],"feature_segments":[],"sorted_idx":[]},"gbtree_model_param":{"num_parallel_tree":"1","num_trees":"1800"},"iteration_indptr":[0,6,12,18,24,30,36,42,48,54,60,66,72,78,84,90,96,102,108,114,120,126,132,138,144,150,156,162,168,174,180,186,192,198,204,210,216,222,228,234,240,246,252,258,264,270,276,282,288,294,300,306,312,318,324,330,336,342,348,354,360,366,372,378,384,390,396,402,408,414,420,426,432,438,444,450,456,462,468,474,480,486,492,498,504,510,516,522,528,534,540,546,552,558,564,570,576,582,588,594,600,606,612,618,624,630,636,642,648,654,660,666,672,678,684,690,696,702,708,714,720,726,732,738,744,750,756,762,768,774,780,786,792,798,804,810,816,822,828,834,840,846,852,858,864,870,876,882,888,894,900,906,912,918,924,930,936,942,948,954,960,966,972,978,984,990,996,1002,1008,1014,1020,1026,1032,1038,1044,1050,1056,1062,1068,1074,1080,1086,1092,1098,1104,1110,1116,1122,1128,1134,1140,1146,1152,1158,1164,1170,1176,1182,1188,1194,1200,1206,1212,1218,1224,1230,1236,1242,1248,1254,1260,1266,1272,1278,1284,1290,1296,1302,1308,1314,1320,1326,1332,1338,1344,1350,1356,1362,1368,1374,1380,1386,1392,1398,1404,1410,1416,1422,1428,1434,1440,1446,1452,1458,1464,1470,1476,1482,1488,1494,1500,1506,1512,1518,1524,1530,1536,1542,1548,1554,1560,1566,1572,1578,1584,1590,1596,1602,1608,1614,1620,1626,1632,1638,1644,1650,1656,1662,1668,1674,1680,1686,1692,1698,1704,1710,1716,1722,1728,1734,1740,1746,1752,1758,1764,1770,1776,1782,1788,1794,1800],"tree_info":[0,1,2,3,4,5,0,1,2,3,4,5,0,1,2,3,4,5,0,1,2,3,4,5,0,1,2,3,4,5,0,1,2,3,4,5,0,1,2,3,4,5,0,1,2,3,4,5,0,1,2,3,4,5,0,1,2,3,4,5,0,1,2,3,4,5,0,1,2,3,4,5,0,1,2,3,4,5,0,1,2,3,4,5,0,1,2,3,4,5,0,1,2,3,4,5,0,1,2,3,4,5,0,1,2,3,4,5,0,1,2,3,4,5,0,1,2,3,4,5,0,1,2,3,4,5,0,1,2,3,4,5,0,1,2,3,4,5,0,1,2,3,4,5,0,1,2,3,4,5,0,1,2,3,4,5,0,1,2,3,4,5,0,1,2,3,4,5,0,1,2,3,4,5,0,1,2,3,4,5,0,1,2,3,4,5,0,1,2,3,4,5,0,1,2,3,4,5,0,1,2,3,4,5,0,1,2,3,4,5,0,1,2,3,4,5,0,1,2,3,4,5,0,1,2,3,4,5,0,1,2,3,4,5,0,1,2,3,4,5,0,1,2,3,4,5,0,1,2,3,4,5,0,1,2,3,4,5,0,1,2,3,4,5,0,1,2,3,4,5,0,1,2,3,4,5,0,1,2,3,4,5,0,1,2,3,4,5,0,1,2,3,4,5,0,1,2,3,4,5,0,1,2,3,4,5,0,1,2,3,4,5,0,1,2,3,4,5,0,1,2,3,4,5,0,1,2,3,4,5,0,1,2,3,4,5,0,1,2,3,4,5,0,1,2,3,4,5,0,1,2,3,4,5,0,1,2,3,4,5,0,1,2,3,4,5,0,1,2,3,4,5,0,1,2,3,4,5,0,1,2,3,4,5,0,1,2,3,4,5,0,1,2,3,4,5,0,1,2,3,4,5,0,1,2,3,4,5,0,1,2,3,4,5,0,1,2,3,4,5,0,1,2,3,4,5,0,1,2,3,4,5,0,1,2,3,4,5,0,1,2,3,4,5,0,1,2,3,4,5,0,1,2,3,4,5,0,1,2,3,4,5,0,1,2,3,4,5,0,1,2,3,4,5,0,1,2,3,4,5,0,1,2,3,4,5,0,1,2,3,4,5,0,1,2,3,4,5,0,1,2,3,4,5,0,1,2,3,4,5,0,1,2,3,4,5,0,1,2,3,4,5,0,1,2,3,4,5,0,1,2,3,4,5,0,1,2,3,4,5,0,1,2,3,4,5,0,1,2,3,4,5,0,1,2,3,4,5,0,1,2,3,4,5,0,1,2,3,4,5,0,1,2,3,4,5,0,1,2,3,4,5,0,1,2,3,4,5,0,1,2,3,4,5,0,1,2,3,4,5,0,1,2,3,4,5,0,1,2,3,4,5,0,1,2,3,4,5,0,1,2,3,4,5,0,1,2,3,4,5,0,1,2,3,4,5,0,1,2,3,4,5,0,1,2,3,4,5,0,1,2,3,4,5,0,1,2,3,4,5,0,1,2,3,4,5,0,1,2,3,4,5,0,1,2,3,4,5,0,1,2,3,4,5,0,1,2,3,4,5,0,1,2,3,4,5,0,1,2,3,4,5,0,1,2,3,4,5,0,1,2,3,4,5,0,1,2,3,4,5,0,1,2,3,4,5,0,1,2,3,4,5,0,1,2,3,4,5,0,1,2,3,4,5,0,1,2,3,4,5,0,1,2,3,4,5,0,1,2,3,4,5,0,1,2,3,4,5,0,1,2,3,4,5,0,1,2,3,4,5,0,1,2,3,4,5,0,1,2,3,4,5,0,1,2,3,4,5,0,1,2,3,4,5,0,1,2,3,4,5,0,1,2,3,4,5,0,1,2,3,4,5,0,1,2,3,4,5,0,1,2,3,4,5,0,1,2,3,4,5,0,1,2,3,4,5,0,1,2,3,4,5,0,1,2,3,4,5,0,1,2,3,4,5,0,1,2,3,4,5,0,1,2,3,4,5,0,1,2,3,4,5,0,1,2,3,4,5,0,1,2,3,4,5,0,1,2,3,4,5,0,1,2,3,4,5,0,1,2,3,4,5,0,1,2,3,4,5,0,1,2,3,4,5,0,1,2,3,4,5,0,1,2,3,4,5,0,1,2,3,4,5,0,1,2,3,4,5,0,1,2,3,4,5,0,1,2,3,4,5,0,1,2,3,4,5,0,1,2,3,4,5,0,1,2,3,4,5,0,1,2,3,4,5,0,1,2,3,4,5,0,1,2,3,4,5,0,1,2,3,4,5,0,1,2,3,4,5,0,1,2,3,4,5,0,1,2,3,4,5,0,1,2,3,4,5,0,1,2,3,4,5,0,1,2,3,4,5,0,1,2,3,4,5,0,1,2,3,4,5,0,1,2,3,4,5,0,1,2,3,4,5,0,1,2,3,4,5,0,1,2,3,4,5,0,1,2,3,4,5,0,1,2,3,4,5,0,1,2,3,4,5,0,1,2,3,4,5,0,1,2,3,4,5,0,1,2,3,4,5,0,1,2,3,4,5,0,1,2,3,4,5,0,1,2,3,4,5,0,1,2,3,4,5,0,1,2,3,4,5,0,1,2,3,4,5,0,1,2,3,4,5,0,1,2,3,4,5,0,1,2,3,4,5,0,1,2,3,4,5,0,1,2,3,4,5,0,1,2,3,4,5,0,1,2,3,4,5,0,1,2,3,4,5,0,1,2,3,4,5,0,1,2,3,4,5,0,1,2,3,4,5,0,1,2,3,4,5,0,1,2,3,4,5,0,1,2,3,4,5,0,1,2,3,4,5,0,1,2,3,4,5,0,1,2,3,4,5,0,1,2,3,4,5,0,1,2,3,4,5,0,1,2,3,4,5,0,1,2,3,4,5,0,1,2,3,4,5,0,1,2,3,4,5,0,1,2,3,4,5,0,1,2,3,4,5,0,1,2,3,4,5,0,1,2,3,4,5,0,1,2,3,4,5,0,1,2,3,4,5,0,1,2,3,4,5,0,1,2,3,4,5,0,1,2,3,4,5,0,1,2,3,4,5,0,1,2,3,4,5,0,1,2,3,4,5,0,1,2,3,4,5,0,1,2,3,4,5,0,1,2,3,4,5,0,1,2,3,4,5,0,1,2,3,4,5,0,1,2,3,4,5,0,1,2,3,4,5,0,1,2,3,4,5,0,1,2,3,4,5,0,1,2,3,4,5,0,1,2,3,4,5,0,1,2,3,4,5,0,1,2,3,4,5,0,1,2,3,4,5,0,1,2,3,4,5,0,1,2,3,4,5,0,1,2,3,4,5,0,1,2,3,4,5,0,1,2,3,4,5,0,1,2,3,4,5,0,1,2,3,4,5,0,1,2,3,4,5,0,1,2,3,4,5,0,1,2,3,4,5,0,1,2,3,4,5,0,1,2,3,4,5,0,1,2,3,4,5,0,1,2,3,4,5,0,1,2,3,4,5,0,1,2,3,4,5,0,1,2,3,4,5,0,1,2,3,4,5,0,1,2,3,4,5,0,1,2,3,4,5,0,1,2,3,4,5,0,1,2,3,4,5,0,1,2,3,4,5,0,1,2,3,4,5,0,1,2,3,4,5,0,1,2,3,4,5,0,1,2,3,4,5,0,1,2,3,4,5,0,1,2,3,4,5,0,1,2,3,4,5,0,1,2,3,4,5,0,1,2,3,4,5,0,1,2,3,4,5,0,1,2,3,4,5,0,1,2,3,4,5,0,1,2,3,4,5,0,1,2,3,4,5,0,1,2,3,4,5,0,1,2,3,4,5,0,1,2,3,4,5,0,1,2,3,4,5,0,1,2,3,4,5,0,1,2,3,4,5,0,1,2,3,4,5,0,1,2,3,4,5,0,1,2,3,4,5,0,1,2,3,4,5,0,1,2,3,4,5,0,1,2,3,4,5,0,1,2,3,4,5,0,1,2,3,4,5,0,1,2,3,4,5,0,1,2,3,4,5,0,1,2,3,4,5,0,1,2,3,4,5,0,1,2,3,4,5,0,1,2,3,4,5,0,1,2,3,4,5,0,1,2,3,4,5,0,1,2,3,4,5],"trees":[{"base_weights":[3.2988307E-6,7.622467E-1,-5.998857E-2,-5.9970286E-2,2.0540128E0,2.9981098E-1,-5.9892923E-2],"categories":[],"categories_nodes":[],"categories_segments":[],"categories_sizes":[],"default_left":[0,0,0,0,0,0,0],"id":0,"left_children":[1,3,-1,-1,5,-1,-1],"loss_changes":[4.314903E3,7.312673E3,0E0,0E0,5.344425E3,0E0,0E0],"parents":[2147483647,0,0,1,1,4,4],"right_children":[2,4,-1,-1,6,-1,-1],"split_conditions":[1E0,1E0,-5.998857E-2,-5.9970286E-2,1E0,2.9981098E-1,-5.9892923E-2],"split_indices":[0,3,0,0,1,0,0],"split_type":[0,0,0,0,0,0,0],"sum_hessian":[9.434403E3,4.1548325E3,5.279571E3,2.0227352E3,2.1320974E3,1.5724005E3,5.59697E2],"tree_param":{"num_deleted":"0","num_feature":"17","num_nodes":"7","size_leaf_vector":"1"}},{"base_weights":[2.8866372E-5,-5.9986707E-2,5.999248E-1,-5.99713E-2,1.5891906E0,2.9982376E-1,-5.994023E-2],"categories":[],"categories_nodes":[],"categories_segments":[],"categories_sizes":[],"default_left":[0,0,0,0,0,0,0],"id":1,"left_children":[1,-1,3,-1,5,-1,-1],"loss_changes":[3.395811E3,0E0,5.600138E3,0E0,7.97663E3,0E0,0E0],"parents":[2147483647,0,0,2,2,4,4],"right_children":[2,-1,4,-1,6,-1,-1],"split_conditions":[1E0,-5.9986707E-2,1E0,-5.99713E-2,1E0,2.9982376E-1,-5.994023E-2],"split_indices":[3,0,0,0,1,0,0],"split_type":[0,0,0,0,0,0,0],"sum_hessian":[9.434081E3,4.717041E3,4.7170405E3,2.1320247E3,2.5850159E3,1.5723469E3,1.01266907E3],"tree_param":{"num_deleted":"0","num_feature":"17","num_nodes":"7","size_leaf_vector":"1"}},{"base_weights":[-6.538023E-6,7.6222694E-1,-5.9988774E-2,2.1973968E0,-5.9972007E-2,2.998061E-1,-5.98672E-2],"categories":[],"categories_nodes":[],"categories_segments":[],"categories_sizes":[],"default_left":[0,0,0,0,0,0,0],"id":2,"left_children":[1,3,-1,5,-1,-1,-1],"loss_changes":[4.3148477E3,8.1245205E3,0E0,4.532412E3,0E0,0E0,0E0],"parents":[2147483647,0,0,1,1,3,3],"right_children":[2,4,-1,6,-1,-1,-1],"split_conditions":[1E0,1E0,-5.9988774E-2,1E0,-5.9972007E-2,2.998061E-1,-5.98672E-2],"split_indices":[0,3,0,1,0,0,0],"split_type":[0,0,0,0,0,0,0],"sum_hessian":[9.434526E3,4.154887E3,5.2796396E3,2.0227616E3,2.1321255E3,1.5724211E3,4.503405E2],"tree_param":{"num_deleted":"0","num_feature":"17","num_nodes":"7","size_leaf_vector":"1"}},{"base_weights":[-3.033532E-5,5.998183E-1,-5.99879E-2,-5.9970964E-2,1.500192E0,2.9979423E-1,-5.994719E-2],"categories":[],"categories_nodes":[],"categories_segments":[],"categories_sizes":[],"default_left":[0,0,0,0,0,0,0],"id":3,"left_children":[1,3,-1,-1,5,-1,-1],"loss_changes":[3.395543E3,5.0968955E3,0E0,0E0,8.478803E3,0E0,0E0],"parents":[2147483647,0,0,1,1,4,4],"right_children":[2,4,-1,-1,6,-1,-1],"split_conditions":[1E0,1E0,-5.99879E-2,-5.9970964E-2,1E0,2.9979423E-1,-5.994719E-2],"split_indices":[3,0,0,0,1,0,0],"split_type":[0,0,0,0,0,0,0],"sum_hessian":[9.434825E3,4.7174126E3,4.7174126E3,2.0228258E3,2.694587E3,1.5724708E3,1.1221161E3],"tree_param":{"num_deleted":"0","num_feature":"17","num_nodes":"7","size_leaf_vector":"1"}},{"base_weights":[1.6270258E-5,-5.9990138E-2,1.1996608E0,-5.996154E-2,2.9981744E-1],"categories":[],"categories_nodes":[],"categories_segments":[],"categories_sizes":[],"default_left":[0,0,0,0,0],"id":4,"left_children":[1,-1,3,-1,-1],"loss_changes":[6.7911475E3,0E0,1.0181506E4,0E0,0E0],"parents":[2147483647,0,0,2,2],"right_children":[2,-1,4,-1,-1],"split_conditions":[1E0,-5.9990138E-2,1E0,-5.996154E-2,2.9981744E-1],"split_indices":[1,0,3,0,0],"split_type":[0,0,0,0,0],"sum_hessian":[9.434239E3,6.289493E3,3.1447466E3,1.5723732E3,1.5723733E3],"tree_param":{"num_deleted":"0","num_feature":"17","num_nodes":"5","size_leaf_vector":"1"}},{"base_weights":[-1.1461385E-5,-5.9990693E-2,1.1995888E0,2.998036E-1,-5.9962094E-2],"categories":[],"categories_nodes":[],"categories_segments":[],"categories_sizes":[],"default_left":[0,0,0,0,0],"id":5,"left_children":[1,-1,3,-1,-1],"loss_changes":[6.7908965E3,0E0,1.0181131E4,0E0,0E0],"parents":[2147483647,0,0,2,2],"right_children":[2,-1,4,-1,-1],"split_conditions":[1E0,-5.9990693E-2,1E0,2.998036E-1,-5.9962094E-2],"split_indices":[1,0,3,0,0],"split_type":[0,0,0,0,0],"sum_hessian":[9.434589E3,6.2897256E3,3.1448628E3,1.5724313E3,1.5724314E3],"tree_param":{"num_deleted":"0","num_feature":"17","num_nodes":"5","size_leaf_vector":"1"}},{"base_weights":[1.7127142E-6,6.711398E-1,-5.919099E-2,-5.9172023E-2,1.6409926E0,2.243418E-1,-5.909198E-2],"categories":[],"categories_nodes":[],"categories_segments":[],"categories_sizes":[],"default_left":[0,0,0,0,0,0,0],"id":6,"left_children":[1,3,-1,-1,5,-1,-1],"loss_changes":[3.7316782E3,5.3927607E3,0E0,0E0,3.3496E3,0E0,0E0],"parents":[2147483647,0,0,1,1,4,4],"right_children":[2,4,-1,-1,6,-1,-1],"split_conditions":[1E0,1E0,-5.919099E-2,-5.9172023E-2,1E0,2.243418E-1,-5.909198E-2],"split_indices":[0,3,0,0,1,0,0],"split_type":[0,0,0,0,0,0,0],"sum_hessian":[9.391674E3,4.4012217E3,4.9904526E3,1.911986E3,2.4892358E3,1.9601561E3,5.290797E2],"tree_param":{"num_deleted":"0","num_feature":"17","num_nodes":"7","size_leaf_vector":"1"}},{"base_weights":[2.5267525E-5,-5.91891E-2,5.350811E-1,-5.9173148E-2,1.3134085E0,2.2434731E-1,-5.914105E-2],"categories":[],"categories_nodes":[],"categories_segments":[],"categories_sizes":[],"default_left":[0,0,0,0,0,0,0],"id":7,"left_children":[1,-1,3,-1,5,-1,-1],"loss_changes":[2.9749604E3,0E0,4.327738E3,0E0,5.1715195E3,0E0,0E0],"parents":[2147483647,0,0,2,2,4,4],"right_children":[2,-1,4,-1,6,-1,-1],"split_conditions":[1E0,-5.91891E-2,1E0,-5.9173148E-2,1E0,2.2434731E-1,-5.914105E-2],"split_indices":[3,0,0,0,1,0,0],"split_type":[0,0,0,0,0,0,0],"sum_hessian":[9.391379E3,4.4587217E3,4.9326567E3,2.0152896E3,2.9173672E3,1.9601222E3,9.5724506E2],"tree_param":{"num_deleted":"0","num_feature":"17","num_nodes":"7","size_leaf_vector":"1"}},{"base_weights":[-7.3567294E-6,6.711239E-1,-5.9191164E-2,1.7376794E0,-5.917379E-2,2.2433932E-1,-5.906534E-2],"categories":[],"categories_nodes":[],"categories_segments":[],"categories_sizes":[],"default_left":[0,0,0,0,0,0,0],"id":8,"left_children":[1,3,-1,5,-1,-1,-1],"loss_changes":[3.7316396E3,5.930499E3,0E0,2.8118115E3,0E0,0E0,0E0],"parents":[2147483647,0,0,1,1,3,3],"right_children":[2,4,-1,6,-1,-1,-1],"split_conditions":[1E0,1E0,-5.9191164E-2,1E0,-5.917379E-2,2.2433932E-1,-5.906534E-2],"split_indices":[0,3,0,1,0,0,0],"split_type":[0,0,0,0,0,0,0],"sum_hessian":[9.391788E3,4.40127E3,4.9905186E3,2.3858845E3,2.0153853E3,1.9601718E3,4.2571286E2],"tree_param":{"num_deleted":"0","num_feature":"17","num_nodes":"7","size_leaf_vector":"1"}},{"base_weights":[-2.9639996E-5,5.349928E-1,-5.9190165E-2,-5.917263E-2,1.2481033E0,2.243319E-1,-5.914808E-2],"categories":[],"categories_nodes":[],"categories_segments":[],"categories_sizes":[],"default_left":[0,0,0,0,0,0,0],"id":9,"left_children":[1,3,-1,-1,5,-1,-1],"loss_changes":[2.97477E3,3.9650762E3,0E0,0E0,5.533799E3,0E0,0E0],"parents":[2147483647,0,0,1,1,4,4],"right_children":[2,4,-1,-1,6,-1,-1],"split_conditions":[1E0,1E0,-5.9190165E-2,-5.917263E-2,1E0,2.243319E-1,-5.914808E-2],"split_indices":[3,0,0,0,1,0,0],"split_type":[0,0,0,0,0,0,0],"sum_hessian":[9.392065E3,4.932989E3,4.459077E3,1.9120723E3,3.0209163E3,1.9602181E3,1.0606982E3],"tree_param":{"num_deleted":"0","num_feature":"17","num_nodes":"7","size_leaf_vector":"1"}},{"base_weights":[1.7877048E-5,-5.9192657E-2,1.0210015E0,-5.9162974E-2,2.2434779E-1],"categories":[],"categories_nodes":[],"categories_segments":[],"categories_sizes":[],"default_left":[0,0,0,0,0],"id":10,"left_children":[1,-1,3,-1,-1],"loss_changes":[5.677092E3,0E0,6.797552E3,0E0,0E0],"parents":[2147483647,0,0,2,2],"right_children":[2,-1,4,-1,-1],"split_conditions":[1E0,-5.9192657E-2,1E0,-5.9162974E-2,2.2434779E-1],"split_indices":[1,0,3,0,0],"split_type":[0,0,0,0,0],"sum_hessian":[9.391475E3,5.9450703E3,3.4464045E3,1.4862854E3,1.9601191E3],"tree_param":{"num_deleted":"0","num_feature":"17","num_nodes":"5","size_leaf_vector":"1"}},{"base_weights":[-7.903808E-6,-5.9193153E-2,1.0209479E0,2.2434048E-1,-5.916347E-2],"categories":[],"categories_nodes":[],"categories_segments":[],"categories_sizes":[],"default_left":[0,0,0,0,0],"id":11,"left_children":[1,-1,3,-1,-1],"loss_changes":[5.6769336E3,0E0,6.797439E3,0E0,0E0],"parents":[2147483647,0,0,2,2],"right_children":[2,-1,4,-1,-1],"split_conditions":[1E0,-5.9193153E-2,1E0,2.2434048E-1,-5.916347E-2],"split_indices":[1,0,3,0,0],"split_type":[0,0,0,0,0],"sum_hessian":[9.391797E3,5.9452915E3,3.4465051E3,1.9601644E3,1.4863408E3],"tree_param":{"num_deleted":"0","num_feature":"17","num_nodes":"5","size_leaf_vector":"1"}},{"base_weights":[2.9940284E-7,6.031581E-1,-5.8457997E-2,-5.843828E-2,1.3794359E0,1.8130687E-1,-5.835508E-2],"categories":[],"categories_nodes":[],"categories_segments":[],"categories_sizes":[],"default_left":[0,0,0,0,0,0,0],"id":12,"left_children":[1,3,-1,-1,5,-1,-1],"loss_changes":[3.2703345E3,4.2091025E3,0E0,0E0,2.3510913E3,0E0,0E0],"parents":[2147483647,0,0,1,1,4,4],"right_children":[2,4,-1,-1,6,-1,-1],"split_conditions":[1E0,1E0,-5.8457997E-2,-5.843828E-2,1E0,1.8130687E-1,-5.835508E-2],"split_indices":[0,3,0,0,1,0,0],"split_type":[0,0,0,0,0,0,0],"sum_hessian":[9.273068E3,4.563998E3,4.7090703E3,1.8042002E3,2.7597976E3,2.2605156E3,4.9928198E2],"tree_param":{"num_deleted":"0","num_feature":"17","num_nodes":"7","size_leaf_vector":"1"}},{"base_weights":[2.1946995E-5,-5.8456082E-2,4.8558772E-1,-5.8439504E-2,1.1287081E0,1.8130934E-1,-5.8406163E-2],"categories":[],"categories_nodes":[],"categories_segments":[],"categories_sizes":[],"default_left":[0,0,0,0,0,0,0],"id":13,"left_children":[1,-1,3,-1,5,-1,-1],"loss_changes":[2.6326816E3,0E0,3.4870442E3,0E0,3.710821E3,0E0,0E0],"parents":[2147483647,0,0,2,2,4,4],"right_children":[2,-1,4,-1,6,-1,-1],"split_conditions":[1E0,-5.8456082E-2,1E0,-5.8439504E-2,1E0,1.8130934E-1,-5.8406163E-2],"split_indices":[3,0,0,0,1,0,0],"split_type":[0,0,0,0,0,0,0],"sum_hessian":[9.272795E3,4.207316E3,5.065479E3,1.9016785E3,3.1638005E3,2.2604968E3,9.033037E2],"tree_param":{"num_deleted":"0","num_feature":"17","num_nodes":"7","size_leaf_vector":"1"}},{"base_weights":[-8.243755E-6,6.031447E-1,-5.8458157E-2,1.451358E0,-5.844007E-2,1.813054E-1,-5.8327366E-2],"categories":[],"categories_nodes":[],"categories_segments":[],"categories_sizes":[],"default_left":[0,0,0,0,0,0,0],"id":14,"left_children":[1,3,-1,5,-1,-1,-1],"loss_changes":[3.2703071E3,4.599177E3,0E0,1.9610073E3,0E0,0E0,0E0],"parents":[2147483647,0,0,1,1,3,3],"right_children":[2,4,-1,6,-1,-1,-1],"split_conditions":[1E0,1E0,-5.8458157E-2,1E0,-5.844007E-2,1.813054E-1,-5.8327366E-2],"split_indices":[0,3,0,1,0,0,0],"split_type":[0,0,0,0,0,0,0],"sum_hessian":[9.273175E3,4.564041E3,4.7091333E3,2.6622715E3,1.9017695E3,2.260527E3,4.0174445E2],"tree_param":{"num_deleted":"0","num_feature":"17","num_nodes":"7","size_leaf_vector":"1"}},{"base_weights":[-2.9585746E-5,4.85512E-1,-5.8457043E-2,-5.8438815E-2,1.0773863E0,1.8129979E-1,-5.8413316E-2],"categories":[],"categories_nodes":[],"categories_segments":[],"categories_sizes":[],"default_left":[0,0,0,0,0,0,0],"id":15,"left_children":[1,3,-1,-1,5,-1,-1],"loss_changes":[2.6325425E3,3.209147E3,0E0,0E0,3.988587E3,0E0,0E0],"parents":[2147483647,0,0,1,1,4,4],"right_children":[2,4,-1,-1,6,-1,-1],"split_conditions":[1E0,1E0,-5.8457043E-2,-5.8438815E-2,1E0,1.8129979E-1,-5.8413316E-2],"split_indices":[3,0,0,0,1,0,0],"split_type":[0,0,0,0,0,0,0],"sum_hessian":[9.273431E3,5.065776E3,4.2076543E3,1.8042822E3,3.261494E3,2.2605706E3,1.0009233E3],"tree_param":{"num_deleted":"0","num_feature":"17","num_nodes":"7","size_leaf_vector":"1"}},{"base_weights":[1.9891153E-5,-5.8459785E-2,8.9528006E-1,-5.8428854E-2,1.8131258E-1],"categories":[],"categories_nodes":[],"categories_segments":[],"categories_sizes":[],"default_left":[0,0,0,0,0],"id":16,"left_children":[1,-1,3,-1,-1],"loss_changes":[4.85431E3,0E0,4.976792E3,0E0,0E0],"parents":[2147483647,0,0,2,2],"right_children":[2,-1,4,-1,-1],"split_conditions":[1E0,-5.8459785E-2,1E0,-5.8428854E-2,1.8131258E-1],"split_indices":[1,0,3,0,0],"split_type":[0,0,0,0,0],"sum_hessian":[9.272836E3,5.6098623E3,3.6629736E3,1.402502E3,2.260472E3],"tree_param":{"num_deleted":"0","num_feature":"17","num_nodes":"5","size_leaf_vector":"1"}},{"base_weights":[-4.3411915E-6,-5.8460236E-2,8.952377E-1,1.8130802E-1,-5.84293E-2],"categories":[],"categories_nodes":[],"categories_segments":[],"categories_sizes":[],"default_left":[0,0,0,0,0],"id":17,"left_children":[1,-1,3,-1,-1],"loss_changes":[4.8542036E3,0E0,4.9767666E3,0E0,0E0],"parents":[2147483647,0,0,2,2],"right_children":[2,-1,4,-1,-1],"split_conditions":[1E0,-5.8460236E-2,1E0,1.8130802E-1,-5.84293E-2],"split_indices":[1,0,3,0,0],"split_type":[0,0,0,0,0],"sum_hessian":[9.273135E3,5.6100728E3,3.6630618E3,2.260507E3,1.4025547E3],"tree_param":{"num_deleted":"0","num_feature":"17","num_nodes":"5","size_leaf_vector":"1"}},{"base_weights":[-1.1084726E-6,5.501214E-1,-5.7776954E-2,-5.7756335E-2,1.1977382E0,1.5331611E-1,-5.7669487E-2],"categories":[],"categories_nodes":[],"categories_segments":[],"categories_sizes":[],"default_left":[0,0,0,0,0,0,0],"id":18,"left_children":[1,3,-1,-1,5,-1,-1],"loss_changes":[2.8897024E3,3.401893E3,0E0,0E0,1.7618154E3,0E0,0E0],"parents":[2147483647,0,0,1,1,4,4],"right_children":[2,4,-1,-1,6,-1,-1],"split_conditions":[1E0,1E0,-5.7776954E-2,-5.7756335E-2,1E0,1.5331611E-1,-5.7669487E-2],"split_indices":[0,3,0,0,1,0,0],"split_type":[0,0,0,0,0,0,0],"sum_hessian":[9.089592E3,4.6562183E3,4.4333735E3,1.698593E3,2.9576252E3,2.487539E3,4.7008618E2],"tree_param":{"num_deleted":"0","num_feature":"17","num_nodes":"7","size_leaf_vector":"1"}},{"base_weights":[1.8754949E-5,-5.7775E-2,4.4629663E-1,-5.7757683E-2,9.9547076E-1,1.5331702E-1,-5.7722885E-2],"categories":[],"categories_nodes":[],"categories_segments":[],"categories_sizes":[],"default_left":[0,0,0,0,0,0,0],"id":19,"left_children":[1,-1,3,-1,5,-1,-1],"loss_changes":[2.3441597E3,0E0,2.884729E3,0E0,2.8244622E3,0E0,0E0],"parents":[2147483647,0,0,2,2,4,4],"right_children":[2,-1,4,-1,6,-1,-1],"split_conditions":[1E0,-5.7775E-2,1E0,-5.7757683E-2,1E0,1.5331702E-1,-5.7722885E-2],"split_indices":[3,0,0,0,1,0,0],"split_type":[0,0,0,0,0,0,0],"sum_hessian":[9.089338E3,3.9609905E3,5.128347E3,1.7903636E3,3.3379834E3,2.4875317E3,8.5045166E2],"tree_param":{"num_deleted":"0","num_feature":"17","num_nodes":"7","size_leaf_vector":"1"}},{"base_weights":[-9.120741E-6,5.5011E-1,-5.7777096E-2,1.2546057E0,-5.77582E-2,1.5331517E-1,-5.764053E-2],"categories":[],"categories_nodes":[],"categories_segments":[],"categories_sizes":[],"default_left":[0,0,0,0,0,0,0],"id":20,"left_children":[1,3,-1,5,-1,-1,-1],"loss_changes":[2.889683E3,3.7007021E3,0E0,1.4630146E3,0E0,0E0,0E0],"parents":[2147483647,0,0,1,1,3,3],"right_children":[2,4,-1,6,-1,-1,-1],"split_conditions":[1E0,1E0,-5.7777096E-2,1E0,-5.77582E-2,1.5331517E-1,-5.764053E-2],"split_indices":[0,3,0,1,0,0,0],"split_type":[0,0,0,0,0,0,0],"sum_hessian":[9.08969E3,4.6562573E3,4.433433E3,2.8658074E3,1.79045E3,2.4875474E3,3.782601E2],"tree_param":{"num_deleted":"0","num_feature":"17","num_nodes":"7","size_leaf_vector":"1"}},{"base_weights":[-3.0080544E-5,4.4623008E-1,-5.7775866E-2,-5.775683E-2,9.5328444E-1,1.5331052E-1,-5.773021E-2],"categories":[],"categories_nodes":[],"categories_segments":[],"categories_sizes":[],"default_left":[0,0,0,0,0,0,0],"id":21,"left_children":[1,3,-1,-1,5,-1,-1],"loss_changes":[2.3440552E3,2.6634424E3,0E0,0E0,3.0457278E3,0E0,0E0],"parents":[2147483647,0,0,1,1,4,4],"right_children":[2,4,-1,-1,6,-1,-1],"split_conditions":[1E0,1E0,-5.7775866E-2,-5.775683E-2,1E0,1.5331052E-1,-5.773021E-2],"split_indices":[3,0,0,0,1,0,0],"split_type":[0,0,0,0,0,0,0],"sum_hessian":[9.089926E3,5.1286123E3,3.9613132E3,1.6986707E3,3.4299414E3,2.4875862E3,9.4235535E2],"tree_param":{"num_deleted":"0","num_feature":"17","num_nodes":"7","size_leaf_vector":"1"}},{"base_weights":[2.2285973E-5,-5.7778854E-2,8.0136645E-1,-5.7746507E-2,1.5332164E-1],"categories":[],"categories_nodes":[],"categories_segments":[],"categories_sizes":[],"default_left":[0,0,0,0,0],"id":22,"left_children":[1,-1,3,-1,-1],"loss_changes":[4.2095176E3,0E0,3.8444438E3,0E0,0E0],"parents":[2147483647,0,0,2,2],"right_children":[2,-1,4,-1,-1],"split_conditions":[1E0,-5.7778854E-2,1E0,-5.7746507E-2,1.5332164E-1],"split_indices":[1,0,3,0,0],"split_type":[0,0,0,0,0],"sum_hessian":[9.089333E3,5.2814277E3,3.8079053E3,1.3204122E3,2.487493E3],"tree_param":{"num_deleted":"0","num_feature":"17","num_nodes":"5","size_leaf_vector":"1"}},{"base_weights":[-6.9231834E-7,-5.777926E-2,8.013314E-1,1.5331848E-1,-5.7746913E-2],"categories":[],"categories_nodes":[],"categories_segments":[],"categories_sizes":[],"default_left":[0,0,0,0,0],"id":23,"left_children":[1,-1,3,-1,-1],"loss_changes":[4.209444E3,0E0,3.8444517E3,0E0,0E0],"parents":[2147483647,0,0,2,2],"right_children":[2,-1,4,-1,-1],"split_conditions":[1E0,-5.777926E-2,1E0,1.5331848E-1,-5.7746913E-2],"split_indices":[1,0,3,0,0],"split_type":[0,0,0,0,0],"sum_hessian":[9.089608E3,5.281627E3,3.8079814E3,2.4875193E3,1.320462E3],"tree_param":{"num_deleted":"0","num_feature":"17","num_nodes":"5","size_leaf_vector":"1"}},{"base_weights":[-2.4894016E-6,5.0759035E-1,-5.7142507E-2,-5.712088E-2,1.064172E0,1.3365498E-1,-5.702979E-2],"categories":[],"categories_nodes":[],"categories_segments":[],"categories_sizes":[],"default_left":[0,0,0,0,0,0,0],"id":24,"left_children":[1,3,-1,-1,5,-1,-1],"loss_changes":[2.5677305E3,2.8155908E3,0E0,0E0,1.3777363E3,0E0,0E0],"parents":[2147483647,0,0,1,1,4,4],"right_children":[2,4,-1,-1,6,-1,-1],"split_conditions":[1E0,1E0,-5.7142507E-2,-5.712088E-2,1E0,1.3365498E-1,-5.702979E-2],"split_indices":[0,3,0,0,1,0,0],"split_type":[0,0,0,0,0,0,0],"sum_hessian":[8.850717E3,4.687202E3,4.1635146E3,1.5952225E3,3.0919797E3,2.6504717E3,4.4150812E2],"tree_param":{"num_deleted":"0","num_feature":"17","num_nodes":"7","size_leaf_vector":"1"}},{"base_weights":[1.5495412E-5,-5.71405E-2,4.1434848E-1,-5.712235E-2,8.9482003E-1,1.3365503E-1,-5.7085853E-2],"categories":[],"categories_nodes":[],"categories_segments":[],"categories_sizes":[],"default_left":[0,0,0,0,0,0,0],"id":25,"left_children":[1,-1,3,-1,5,-1,-1],"loss_changes":[2.0958984E3,0E0,2.4305234E3,0E0,2.2345347E3,0E0,0E0],"parents":[2147483647,0,0,2,2,4,4],"right_children":[2,-1,4,-1,6,-1,-1],"split_conditions":[1E0,-5.71405E-2,1E0,-5.712235E-2,1E0,1.3365503E-1,-5.7085853E-2],"split_indices":[3,0,0,0,1,0,0],"split_type":[0,0,0,0,0,0,0],"sum_hessian":[8.850479E3,3.7198835E3,5.130595E3,1.681406E3,3.4491892E3,2.6504712E3,7.987182E2],"tree_param":{"num_deleted":"0","num_feature":"17","num_nodes":"7","size_leaf_vector":"1"}},{"base_weights":[-1.0104603E-5,5.075802E-1,-5.714264E-2,1.1110806E0,-5.7122808E-2,1.3365436E-1,-5.6999415E-2],"categories":[],"categories_nodes":[],"categories_segments":[],"categories_sizes":[],"default_left":[0,0,0,0,0,0,0],"id":26,"left_children":[1,3,-1,5,-1,-1,-1],"loss_changes":[2.5677158E3,3.0529636E3,0E0,1.1403804E3,0E0,0E0,0E0],"parents":[2147483647,0,0,1,1,3,3],"right_children":[2,4,-1,6,-1,-1,-1],"split_conditions":[1E0,1E0,-5.714264E-2,1E0,-5.7122808E-2,1.3365436E-1,-5.6999415E-2],"split_indices":[0,3,0,1,0,0,0],"split_type":[0,0,0,0,0,0,0],"sum_hessian":[8.850808E3,4.687237E3,4.1635713E3,3.005749E3,1.6814877E3,2.6504763E3,3.552726E2],"tree_param":{"num_deleted":"0","num_feature":"17","num_nodes":"7","size_leaf_vector":"1"}},{"base_weights":[-3.0957068E-5,4.1428903E-1,-5.7141293E-2,-5.7121318E-2,8.590007E-1,1.3365029E-1,-5.70934E-2],"categories":[],"categories_nodes":[],"categories_segments":[],"categories_sizes":[],"default_left":[0,0,0,0,0,0,0],"id":27,"left_children":[1,3,-1,-1,5,-1,-1],"loss_changes":[2.0958196E3,2.2495896E3,0E0,0E0,2.4155E3,0E0,0E0],"parents":[2147483647,0,0,1,1,4,4],"right_children":[2,4,-1,-1,6,-1,-1],"split_conditions":[1E0,1E0,-5.7141293E-2,-5.7121318E-2,1E0,1.3365029E-1,-5.70934E-2],"split_indices":[3,0,0,0,1,0,0],"split_type":[0,0,0,0,0,0,0],"sum_hessian":[8.851021E3,5.130832E3,3.7201892E3,1.5952959E3,3.5355361E3,2.650509E3,8.850269E2],"tree_param":{"num_deleted":"0","num_feature":"17","num_nodes":"7","size_leaf_vector":"1"}},{"base_weights":[2.501524E-5,-5.714454E-2,7.285468E-1,-5.7110585E-2,1.3366038E-1],"categories":[],"categories_nodes":[],"categories_segments":[],"categories_sizes":[],"default_left":[0,0,0,0,0],"id":28,"left_children":[1,-1,3,-1,-1],"loss_changes":[3.685523E3,0E0,3.076063E3,0E0,0E0],"parents":[2147483647,0,0,2,2],"right_children":[2,-1,4,-1,-1],"split_conditions":[1E0,-5.714454E-2,1E0,-5.7110585E-2,1.3366038E-1],"split_indices":[1,0,3,0,0],"split_type":[0,0,0,0,0],"sum_hessian":[8.850437E3,4.9599473E3,3.8904895E3,1.240061E3,2.6504285E3],"tree_param":{"num_deleted":"0","num_feature":"17","num_nodes":"5","size_leaf_vector":"1"}},{"base_weights":[3.10479E-6,-5.7144906E-2,7.28517E-1,1.3365808E-1,-5.7110943E-2],"categories":[],"categories_nodes":[],"categories_segments":[],"categories_sizes":[],"default_left":[0,0,0,0,0],"id":29,"left_children":[1,-1,3,-1,-1],"loss_changes":[3.6854712E3,0E0,3.0760867E3,0E0,0E0],"parents":[2147483647,0,0,2,2],"right_children":[2,-1,4,-1,-1],"split_conditions":[1E0,-5.7144906E-2,1E0,1.3365808E-1,-5.7110943E-2],"split_indices":[1,0,3,0,0],"split_type":[0,0,0,0,0],"sum_hessian":[8.850691E3,4.960136E3,3.8905552E3,2.6504468E3,1.2401084E3],"tree_param":{"num_deleted":"0","num_feature":"17","num_nodes":"5","size_leaf_vector":"1"}},{"base_weights":[-4.005452E-6,4.7281456E-1,-5.6551646E-2,-5.6528863E-2,9.6210617E-1,1.19123064E-1,-5.643293E-2],"categories":[],"categories_nodes":[],"categories_segments":[],"categories_sizes":[],"default_left":[0,0,0,0,0,0,0],"id":30,"left_children":[1,3,-1,-1,5,-1,-1],"loss_changes":[2.2908135E3,2.3706494E3,0E0,0E0,1.1099729E3,0E0,0E0],"parents":[2147483647,0,0,1,1,4,4],"right_children":[2,4,-1,-1,6,-1,-1],"split_conditions":[1E0,1E0,-5.6551646E-2,-5.6528863E-2,1E0,1.19123064E-1,-5.643293E-2],"split_indices":[0,3,0,0,1,0,0],"split_type":[0,0,0,0,0,0,0],"sum_hessian":[8.565479E3,4.6651577E3,3.9003213E3,1.494405E3,3.1707527E3,2.7571172E3,4.1363544E2],"tree_param":{"num_deleted":"0","num_feature":"17","num_nodes":"7","size_leaf_vector":"1"}},{"base_weights":[1.2212066E-5,-5.654959E-2,3.8792932E-1,-5.6530457E-2,8.163031E-1,1.1912254E-1,-5.649202E-2],"categories":[],"categories_nodes":[],"categories_segments":[],"categories_sizes":[],"default_left":[0,0,0,0,0,0,0],"id":31,"left_children":[1,-1,3,-1,5,-1,-1],"loss_changes":[1.8794008E3,0E0,2.0754526E3,0E0,1.816458E3,0E0,0E0],"parents":[2147483647,0,0,2,2,4,4],"right_children":[2,-1,4,-1,6,-1,-1],"split_conditions":[1E0,-5.654959E-2,1E0,-5.6530457E-2,1E0,1.1912254E-1,-5.649202E-2],"split_indices":[3,0,0,0,1,0,0],"split_type":[0,0,0,0,0,0,0],"sum_hessian":[8.565254E3,3.4847317E3,5.0805225E3,1.57514E3,3.5053823E3,2.7571208E3,7.482615E2],"tree_param":{"num_deleted":"0","num_feature":"17","num_nodes":"7","size_leaf_vector":"1"}},{"base_weights":[-1.115E-5,4.7280568E-1,-5.6551766E-2,1.002031E0,-5.653088E-2,1.1912266E-1,-5.640092E-2],"categories":[],"categories_nodes":[],"categories_segments":[],"categories_sizes":[],"default_left":[0,0,0,0,0,0,0],"id":32,"left_children":[1,3,-1,5,-1,-1,-1],"loss_changes":[2.2908035E3,2.5641543E3,0E0,9.164895E2,0E0,0E0,0E0],"parents":[2147483647,0,0,1,1,3,3],"right_children":[2,4,-1,6,-1,-1,-1],"split_conditions":[1E0,1E0,-5.6551766E-2,1E0,-5.653088E-2,1.1912266E-1,-5.640092E-2],"split_indices":[0,3,0,1,0,0,0],"split_type":[0,0,0,0,0,0,0],"sum_hessian":[8.565563E3,4.665189E3,3.9003745E3,3.0899722E3,1.5752168E3,2.7571199E3,3.3285233E2],"tree_param":{"num_deleted":"0","num_feature":"17","num_nodes":"7","size_leaf_vector":"1"}},{"base_weights":[-3.2288408E-5,3.8787547E-1,-5.65503E-2,-5.652926E-2,7.85129E-1,1.1911898E-1,-5.649985E-2],"categories":[],"categories_nodes":[],"categories_segments":[],"categories_sizes":[],"default_left":[0,0,0,0,0,0,0],"id":33,"left_children":[1,3,-1,-1,5,-1,-1],"loss_changes":[1.8793406E3,1.9246384E3,0E0,0E0,1.9673286E3,0E0,0E0],"parents":[2147483647,0,0,1,1,4,4],"right_children":[2,4,-1,-1,6,-1,-1],"split_conditions":[1E0,1E0,-5.65503E-2,-5.652926E-2,1E0,1.1911898E-1,-5.649985E-2],"split_indices":[3,0,0,0,1,0,0],"split_type":[0,0,0,0,0,0,0],"sum_hessian":[8.565753E3,5.0807314E3,3.4850215E3,1.4944744E3,3.586257E3,2.7571436E3,8.291134E2],"tree_param":{"num_deleted":"0","num_feature":"17","num_nodes":"7","size_leaf_vector":"1"}},{"base_weights":[2.8132752E-5,-5.6553822E-2,6.705807E-1,-5.6518026E-2,1.1912837E-1],"categories":[],"categories_nodes":[],"categories_segments":[],"categories_sizes":[],"default_left":[0,0,0,0,0],"id":34,"left_children":[1,-1,3,-1,-1],"loss_changes":[3.2490361E3,0E0,2.5229106E3,0E0,0E0],"parents":[2147483647,0,0,2,2],"right_children":[2,-1,4,-1,-1],"split_conditions":[1E0,-5.6553822E-2,1E0,-5.6518026E-2,1.1912837E-1],"split_indices":[1,0,3,0,0],"split_type":[0,0,0,0,0],"sum_hessian":[8.565185E3,4.646407E3,3.9187778E3,1.1616947E3,2.7570833E3],"tree_param":{"num_deleted":"0","num_feature":"17","num_nodes":"5","size_leaf_vector":"1"}},{"base_weights":[7.105123E-6,-5.655415E-2,6.7055464E-1,1.19126596E-1,-5.6518357E-2],"categories":[],"categories_nodes":[],"categories_segments":[],"categories_sizes":[],"default_left":[0,0,0,0,0],"id":35,"left_children":[1,-1,3,-1,-1],"loss_changes":[3.2489985E3,0E0,2.5229417E3,0E0,0E0],"parents":[2147483647,0,0,2,2],"right_children":[2,-1,4,-1,-1],"split_conditions":[1E0,-5.655415E-2,1E0,1.19126596E-1,-5.6518357E-2],"split_indices":[1,0,3,0,0],"split_type":[0,0,0,0,0],"sum_hessian":[8.565419E3,4.646585E3,3.918834E3,2.7570945E3,1.1617395E3],"tree_param":{"num_deleted":"0","num_feature":"17","num_nodes":"5","size_leaf_vector":"1"}},{"base_weights":[-5.5391242E-6,4.439578E-1,-5.6002177E-2,-5.597807E-2,8.818651E-1,1.0798502E-1,-5.587662E-2],"categories":[],"categories_nodes":[],"categories_segments":[],"categories_sizes":[],"default_left":[0,0,0,0,0,0,0],"id":36,"left_children":[1,3,-1,-1,5,-1,-1],"loss_changes":[2.049833E3,2.0218799E3,0E0,0E0,9.1397314E2,0E0,0E0],"parents":[2147483647,0,0,1,1,4,4],"right_children":[2,4,-1,-1,6,-1,-1],"split_conditions":[1E0,1E0,-5.6002177E-2,-5.597807E-2,1E0,1.0798502E-1,-5.587662E-2],"split_indices":[0,3,0,0,1,0,0],"split_type":[0,0,0,0,0,0,0],"sum_hessian":[8.242622E3,4.597821E3,3.6448015E3,1.3965271E3,3.2012937E3,2.814719E3,3.8657474E2],"tree_param":{"num_deleted":"0","num_feature":"17","num_nodes":"7","size_leaf_vector":"1"}},{"base_weights":[8.789292E-6,-5.6000043E-2,3.6580107E-1,-5.5979814E-2,7.535725E-1,1.0798414E-1,-5.5939138E-2],"categories":[],"categories_nodes":[],"categories_segments":[],"categories_sizes":[],"default_left":[0,0,0,0,0,0,0],"id":37,"left_children":[1,-1,3,-1,5,-1,-1],"loss_changes":[1.6888423E3,0E0,1.7903497E3,0E0,1.5063557E3,0E0,0E0],"parents":[2147483647,0,0,2,2,4,4],"right_children":[2,-1,4,-1,6,-1,-1],"split_conditions":[1E0,-5.6000043E-2,1E0,-5.5979814E-2,1E0,1.0798414E-1,-5.5939138E-2],"split_indices":[3,0,0,0,1,0,0],"split_type":[0,0,0,0,0,0,0],"sum_hessian":[8.242406E3,3.2564373E3,4.985969E3,1.4719719E3,3.5139976E3,2.8147224E3,6.992752E2],"tree_param":{"num_deleted":"0","num_feature":"17","num_nodes":"7","size_leaf_vector":"1"}},{"base_weights":[-1.2294316E-5,4.4394988E-1,-5.6002278E-2,9.166773E-1,-5.5980187E-2,1.07984744E-1,-5.584277E-2],"categories":[],"categories_nodes":[],"categories_segments":[],"categories_sizes":[],"default_left":[0,0,0,0,0,0,0],"id":38,"left_children":[1,3,-1,5,-1,-1,-1],"loss_changes":[2.0498262E3,2.182672E3,0E0,7.5320337E2,0E0,0E0,0E0],"parents":[2147483647,0,0,1,1,3,3],"right_children":[2,4,-1,6,-1,-1,-1],"split_conditions":[1E0,1E0,-5.6002278E-2,1E0,-5.5980187E-2,1.07984744E-1,-5.584277E-2],"split_indices":[0,3,0,1,0,0,0],"split_type":[0,0,0,0,0,0,0],"sum_hessian":[8.242701E3,4.5978496E3,3.6448518E3,3.1258052E3,1.4720441E3,2.8147202E3,3.1108505E2],"tree_param":{"num_deleted":"0","num_feature":"17","num_nodes":"7","size_leaf_vector":"1"}},{"base_weights":[-3.3997112E-5,3.657517E-1,-5.6000687E-2,-5.5978436E-2,7.25906E-1,1.0798136E-1,-5.5947322E-2],"categories":[],"categories_nodes":[],"categories_segments":[],"categories_sizes":[],"default_left":[0,0,0,0,0,0,0],"id":39,"left_children":[1,3,-1,-1,5,-1,-1],"loss_changes":[1.6887961E3,1.662803E3,0E0,0E0,1.6339702E3,0E0,0E0],"parents":[2147483647,0,0,1,1,4,4],"right_children":[2,4,-1,-1,6,-1,-1],"split_conditions":[1E0,1E0,-5.6000687E-2,-5.5978436E-2,1E0,1.0798136E-1,-5.5947322E-2],"split_indices":[3,0,0,0,1,0,0],"split_type":[0,0,0,0,0,0,0],"sum_hessian":[8.242864E3,4.986154E3,3.2567104E3,1.3965922E3,3.5895615E3,2.8147322E3,7.7482935E2],"tree_param":{"num_deleted":"0","num_feature":"17","num_nodes":"7","size_leaf_vector":"1"}},{"base_weights":[3.1611045E-5,-5.6004502E-2,6.235183E-1,-5.5966634E-2,1.0799024E-1],"categories":[],"categories_nodes":[],"categories_segments":[],"categories_sizes":[],"default_left":[0,0,0,0,0],"id":40,"left_children":[1,-1,3,-1,-1],"loss_changes":[2.87892E3,0E0,2.1072622E3,0E0,0E0],"parents":[2147483647,0,0,2,2],"right_children":[2,-1,4,-1,-1],"split_conditions":[1E0,-5.6004502E-2,1E0,-5.5966634E-2,1.0799024E-1],"split_indices":[1,0,3,0,0],"split_type":[0,0,0,0,0],"sum_hessian":[8.242322E3,4.342008E3,3.900314E3,1.0856136E3,2.8147004E3],"tree_param":{"num_deleted":"0","num_feature":"17","num_nodes":"5","size_leaf_vector":"1"}},{"base_weights":[1.1364017E-5,-5.60048E-2,6.2349516E-1,1.07988834E-1,-5.5966932E-2],"categories":[],"categories_nodes":[],"categories_segments":[],"categories_sizes":[],"default_left":[0,0,0,0,0],"id":41,"left_children":[1,-1,3,-1,-1],"loss_changes":[2.878892E3,0E0,2.107294E3,0E0,0E0],"parents":[2147483647,0,0,2,2],"right_children":[2,-1,4,-1,-1],"split_conditions":[1E0,-5.60048E-2,1E0,1.07988834E-1,-5.5966932E-2],"split_indices":[1,0,3,0,0],"split_type":[0,0,0,0,0],"sum_hessian":[8.242536E3,4.342175E3,3.900361E3,2.8147056E3,1.0856556E3],"tree_param":{"num_deleted":"0","num_feature":"17","num_nodes":"5","size_leaf_vector":"1"}},{"base_weights":[-7.122015E-6,4.1973114E-1,-5.549215E-2,-5.546657E-2,8.1739575E-1,9.921286E-2,-5.5358876E-2],"categories":[],"categories_nodes":[],"categories_segments":[],"categories_sizes":[],"default_left":[0,0,0,0,0,0,0],"id":42,"left_children":[1,3,-1,-1,5,-1,-1],"loss_changes":[1.8383145E3,1.7416357E3,0E0,0E0,7.6511646E2,0E0,0E0],"parents":[2147483647,0,0,1,1,4,4],"right_children":[2,4,-1,-1,6,-1,-1],"split_conditions":[1E0,1E0,-5.549215E-2,-5.546657E-2,1E0,9.921286E-2,-5.5358876E-2],"split_indices":[0,3,0,0,1,0,0],"split_type":[0,0,0,0,0,0,0],"sum_hessian":[7.890512E3,4.492569E3,3.3979436E3,1.3019669E3,3.1906016E3,2.830171E3,3.6043076E2],"tree_param":{"num_deleted":"0","num_feature":"17","num_nodes":"7","size_leaf_vector":"1"}},{"base_weights":[5.1992256E-6,-5.5489935E-2,3.4707707E-1,-5.546845E-2,7.0251805E-1,9.9211715E-2,-5.5425264E-2],"categories":[],"categories_nodes":[],"categories_segments":[],"categories_sizes":[],"default_left":[0,0,0,0,0,0,0],"id":43,"left_children":[1,-1,3,-1,5,-1,-1],"loss_changes":[1.5199926E3,0E0,1.5566638E3,0E0,1.2682643E3,0E0,0E0],"parents":[2147483647,0,0,2,2,4,4],"right_children":[2,-1,4,-1,6,-1,-1],"split_conditions":[1E0,-5.5489935E-2,1E0,-5.546845E-2,1E0,9.9211715E-2,-5.5425264E-2],"split_indices":[3,0,0,0,1,0,0],"split_type":[0,0,0,0,0,0,0],"sum_hessian":[7.8903027E3,3.0358823E3,4.8544204E3,1.3723013E3,3.482119E3,2.8301704E3,6.5194867E2],"tree_param":{"num_deleted":"0","num_feature":"17","num_nodes":"7","size_leaf_vector":"1"}},{"base_weights":[-1.3474374E-5,4.19724E-1,-5.549224E-2,8.483399E-1,-5.5468794E-2,9.921269E-2,-5.5322934E-2],"categories":[],"categories_nodes":[],"categories_segments":[],"categories_sizes":[],"default_left":[0,0,0,0,0,0,0],"id":44,"left_children":[1,3,-1,5,-1,-1,-1],"loss_changes":[1.8383097E3,1.8772135E3,0E0,6.295613E2,0E0,0E0,0E0],"parents":[2147483647,0,0,1,1,3,3],"right_children":[2,4,-1,6,-1,-1,-1],"split_conditions":[1E0,1E0,-5.549224E-2,1E0,-5.5468794E-2,9.921269E-2,-5.5322934E-2],"split_indices":[0,3,0,1,0,0,0],"split_type":[0,0,0,0,0,0,0],"sum_hessian":[7.8905845E3,4.4925947E3,3.39799E3,3.1202258E3,1.3723687E3,2.830171E3,2.9005502E2],"tree_param":{"num_deleted":"0","num_feature":"17","num_nodes":"7","size_leaf_vector":"1"}},{"base_weights":[-3.601726E-5,3.4703156E-1,-5.549052E-2,-5.546689E-2,6.775722E-1,9.920951E-2,-5.5433847E-2],"categories":[],"categories_nodes":[],"categories_segments":[],"categories_sizes":[],"default_left":[0,0,0,0,0,0,0],"id":45,"left_children":[1,3,-1,-1,5,-1,-1],"loss_changes":[1.5199573E3,1.4475752E3,0E0,0E0,1.3774246E3,0E0,0E0],"parents":[2147483647,0,0,1,1,4,4],"right_children":[2,4,-1,-1,6,-1,-1],"split_conditions":[1E0,1E0,-5.549052E-2,-5.546689E-2,1E0,9.920951E-2,-5.5433847E-2],"split_indices":[3,0,0,0,1,0,0],"split_type":[0,0,0,0,0,0,0],"sum_hessian":[7.890721E3,4.8545815E3,3.0361396E3,1.3020278E3,3.552554E3,2.8301692E3,7.2238464E2],"tree_param":{"num_deleted":"0","num_feature":"17","num_nodes":"7","size_leaf_vector":"1"}},{"base_weights":[3.548369E-5,-5.5494644E-2,5.8471274E-1,-5.5454444E-2,9.921799E-2],"categories":[],"categories_nodes":[],"categories_segments":[],"categories_sizes":[],"default_left":[0,0,0,0,0],"id":46,"left_children":[1,-1,3,-1,-1],"loss_changes":[2.5609067E3,0E0,1.7846409E3,0E0,0E0],"parents":[2147483647,0,0,2,2],"right_children":[2,-1,4,-1,-1],"split_conditions":[1E0,-5.5494644E-2,1E0,-5.5454444E-2,9.921799E-2],"split_indices":[1,0,3,0,0],"split_type":[0,0,0,0,0],"sum_hessian":[7.890211E3,4.0479265E3,3.8422847E3,1.01211163E3,2.8301729E3],"tree_param":{"num_deleted":"0","num_feature":"17","num_nodes":"5","size_leaf_vector":"1"}},{"base_weights":[1.5873331E-5,-5.5494912E-2,5.846919E-1,9.9216856E-2,-5.5454712E-2],"categories":[],"categories_nodes":[],"categories_segments":[],"categories_sizes":[],"default_left":[0,0,0,0,0],"id":47,"left_children":[1,-1,3,-1,-1],"loss_changes":[2.5608862E3,0E0,1.7846724E3,0E0,0E0],"parents":[2147483647,0,0,2,2],"right_children":[2,-1,4,-1,-1],"split_conditions":[1E0,-5.5494912E-2,1E0,9.9216856E-2,-5.5454712E-2],"split_indices":[1,0,3,0,0],"split_type":[0,0,0,0,0],"sum_hessian":[7.8904062E3,4.0480828E3,3.8423235E3,2.8301724E3,1.0121511E3],"tree_param":{"num_deleted":"0","num_feature":"17","num_nodes":"5","size_leaf_vector":"1"}},{"base_weights":[-8.761434E-6,3.991965E-1,-5.5019695E-2,-5.4992437E-2,7.64701E-1,9.215669E-2,-5.4877717E-2],"categories":[],"categories_nodes":[],"categories_segments":[],"categories_sizes":[],"default_left":[0,0,0,0,0,0,0],"id":48,"left_children":[1,3,-1,-1,5,-1,-1],"loss_changes":[1.6514567E3,1.5120278E3,0E0,0E0,6.487717E2,0E0,0E0],"parents":[2147483647,0,0,1,1,4,4],"right_children":[2,4,-1,-1,6,-1,-1],"split_conditions":[1E0,1E0,-5.5019695E-2,-5.4992437E-2,1E0,9.215669E-2,-5.4877717E-2],"split_indices":[0,3,0,0,1,0,0],"split_type":[0,0,0,0,0,0,0],"sum_hessian":[7.516993E3,4.356373E3,3.1606206E3,1.2110594E3,3.1453135E3,2.8100173E3,3.35296E2],"tree_param":{"num_deleted":"0","num_feature":"17","num_nodes":"7","size_leaf_vector":"1"}},{"base_weights":[1.4797859E-6,-5.501738E-2,3.3110103E-1,-5.4994483E-2,6.603478E-1,9.215535E-2,-5.4948457E-2],"categories":[],"categories_nodes":[],"categories_segments":[],"categories_sizes":[],"default_left":[0,0,0,0,0,0,0],"id":49,"left_children":[1,-1,3,-1,5,-1,-1],"loss_changes":[1.3696433E3,0E0,1.3619885E3,0E0,1.0804751E3,0E0,0E0],"parents":[2147483647,0,0,2,2,4,4],"right_children":[2,-1,4,-1,6,-1,-1],"split_conditions":[1E0,-5.501738E-2,1E0,-5.4994483E-2,1E0,9.215535E-2,-5.4948457E-2],"split_indices":[3,0,0,0,1,0,0],"split_type":[0,0,0,0,0,0,0],"sum_hessian":[7.5167876E3,2.8238477E3,4.6929395E3,1.2764802E3,3.4164595E3,2.81001E3,6.0644946E2],"tree_param":{"num_deleted":"0","num_feature":"17","num_nodes":"7","size_leaf_vector":"1"}},{"base_weights":[-1.4800095E-5,3.9919E-1,-5.5019777E-2,7.926412E-1,-5.499479E-2,9.2156574E-2,-5.4839432E-2],"categories":[],"categories_nodes":[],"categories_segments":[],"categories_sizes":[],"default_left":[0,0,0,0,0,0,0],"id":50,"left_children":[1,3,-1,5,-1,-1,-1],"loss_changes":[1.6514541E3,1.6276602E3,0E0,5.3316113E2,0E0,0E0,0E0],"parents":[2147483647,0,0,1,1,3,3],"right_children":[2,4,-1,6,-1,-1,-1],"split_conditions":[1E0,1E0,-5.5019777E-2,1E0,-5.499479E-2,9.2156574E-2,-5.4839432E-2],"split_indices":[0,3,0,1,0,0,0],"split_type":[0,0,0,0,0,0,0],"sum_hessian":[7.517061E3,4.356397E3,3.1606643E3,3.0798538E3,1.2765432E3,2.810017E3,2.6983667E2],"tree_param":{"num_deleted":"0","num_feature":"17","num_nodes":"7","size_leaf_vector":"1"}},{"base_weights":[-3.8453454E-5,3.310585E-1,-5.5017907E-2,-5.499273E-2,6.375578E-1,9.215355E-2,-5.495751E-2],"categories":[],"categories_nodes":[],"categories_segments":[],"categories_sizes":[],"default_left":[0,0,0,0,0,0,0],"id":51,"left_children":[1,3,-1,-1,5,-1,-1],"loss_changes":[1.369616E3,1.2678535E3,0E0,0E0,1.1746812E3,0E0,0E0],"parents":[2147483647,0,0,1,1,4,4],"right_children":[2,4,-1,-1,6,-1,-1],"split_conditions":[1E0,1E0,-5.5017907E-2,-5.499273E-2,1E0,9.215355E-2,-5.495751E-2],"split_indices":[3,0,0,0,1,0,0],"split_type":[0,0,0,0,0,0,0],"sum_hessian":[7.51717E3,4.693081E3,2.8240886E3,1.2111163E3,3.4819648E3,2.8099998E3,6.71965E2],"tree_param":{"num_deleted":"0","num_feature":"17","num_nodes":"7","size_leaf_vector":"1"}},{"base_weights":[3.9737388E-5,-5.5022366E-2,5.5231357E-1,-5.4979544E-2,9.216171E-2],"categories":[],"categories_nodes":[],"categories_segments":[],"categories_sizes":[],"default_left":[0,0,0,0,0],"id":52,"left_children":[1,-1,3,-1,-1],"loss_changes":[2.2849033E3,0E0,1.52782E3,0E0,0E0],"parents":[2147483647,0,0,2,2],"right_children":[2,-1,4,-1,-1],"split_conditions":[1E0,-5.5022366E-2,1E0,-5.4979544E-2,9.216171E-2],"split_indices":[1,0,3,0,0],"split_type":[0,0,0,0,0],"sum_hessian":[7.5166997E3,3.765205E3,3.7514949E3,9.4144885E2,2.810046E3],"tree_param":{"num_deleted":"0","num_feature":"17","num_nodes":"5","size_leaf_vector":"1"}},{"base_weights":[2.0737058E-5,-5.502261E-2,5.522946E-1,9.216078E-2,-5.4979797E-2],"categories":[],"categories_nodes":[],"categories_segments":[],"categories_sizes":[],"default_left":[0,0,0,0,0],"id":53,"left_children":[1,-1,3,-1,-1],"loss_changes":[2.2848887E3,0E0,1.5278503E3,0E0,0E0],"parents":[2147483647,0,0,2,2],"right_children":[2,-1,4,-1,-1],"split_conditions":[1E0,-5.502261E-2,1E0,9.216078E-2,-5.4979797E-2],"split_indices":[1,0,3,0,0],"split_type":[0,0,0,0,0],"sum_hessian":[7.516877E3,3.7653506E3,3.7515266E3,2.8100405E3,9.414859E2],"tree_param":{"num_deleted":"0","num_feature":"17","num_nodes":"5","size_leaf_vector":"1"}},{"base_weights":[-1.0533077E-5,3.816521E-1,-5.4582894E-2,-5.4553773E-2,7.2102773E-1,8.638456E-2,-5.4431166E-2],"categories":[],"categories_nodes":[],"categories_segments":[],"categories_sizes":[],"default_left":[0,0,0,0,0,0,0],"id":54,"left_children":[1,3,-1,-1,5,-1,-1],"loss_changes":[1.485575E3,1.3209565E3,0E0,0E0,5.557363E2,0E0,0E0],"parents":[2147483647,0,0,1,1,4,4],"right_children":[2,4,-1,-1,6,-1,-1],"split_conditions":[1E0,1E0,-5.4582894E-2,-5.4553773E-2,1E0,8.638456E-2,-5.4431166E-2],"split_indices":[0,3,0,0,1,0,0],"split_type":[0,0,0,0,0,0,0],"sum_hessian":[7.1292676E3,4.1957188E3,2.9335488E3,1.1240782E3,3.0716406E3,2.7603945E3,3.112462E2],"tree_param":{"num_deleted":"0","num_feature":"17","num_nodes":"7","size_leaf_vector":"1"}},{"base_weights":[-2.4597975E-6,-5.458046E-2,3.173738E-1,-5.4556E-2,6.250928E-1,8.638308E-2,-5.450678E-2],"categories":[],"categories_nodes":[],"categories_segments":[],"categories_sizes":[],"default_left":[0,0,0,0,0,0,0],"id":55,"left_children":[1,-1,3,-1,5,-1,-1],"loss_changes":[1.2352759E3,0E0,1.19769E3,0E0,9.2915125E2,0E0,0E0],"parents":[2147483647,0,0,2,2,4,4],"right_children":[2,-1,4,-1,6,-1,-1],"split_conditions":[1E0,-5.458046E-2,1E0,-5.4556E-2,1E0,8.638308E-2,-5.450678E-2],"split_indices":[3,0,0,0,1,0,0],"split_type":[0,0,0,0,0,0,0],"sum_hessian":[7.1290625E3,2.6209724E3,4.50809E3,1.184798E3,3.323292E3,2.7603772E3,5.629148E2],"tree_param":{"num_deleted":"0","num_feature":"17","num_nodes":"7","size_leaf_vector":"1"}},{"base_weights":[-1.6171192E-5,3.8164625E-1,-5.4582972E-2,7.4658555E-1,-5.4556277E-2,8.63845E-2,-5.439026E-2],"categories":[],"categories_nodes":[],"categories_segments":[],"categories_sizes":[],"default_left":[0,0,0,0,0,0,0],"id":56,"left_children":[1,3,-1,5,-1,-1,-1],"loss_changes":[1.485574E3,1.4204797E3,0E0,4.5623364E2,0E0,0E0,0E0],"parents":[2147483647,0,0,1,1,3,3],"right_children":[2,4,-1,6,-1,-1,-1],"split_conditions":[1E0,1E0,-5.4582972E-2,1E0,-5.4556277E-2,8.63845E-2,-5.439026E-2],"split_indices":[0,3,0,1,0,0,0],"split_type":[0,0,0,0,0,0,0],"sum_hessian":[7.129331E3,4.1957417E3,2.9335894E3,3.010885E3,1.1848567E3,2.7603943E3,2.5049084E2],"tree_param":{"num_deleted":"0","num_feature":"17","num_nodes":"7","size_leaf_vector":"1"}},{"base_weights":[-4.1307732E-5,3.173338E-1,-5.4580938E-2,-5.4554034E-2,6.040416E-1,8.6381584E-2,-5.451637E-2],"categories":[],"categories_nodes":[],"categories_segments":[],"categories_sizes":[],"default_left":[0,0,0,0,0,0,0],"id":57,"left_children":[1,3,-1,-1,5,-1,-1],"loss_changes":[1.2352545E3,1.115876E3,0E0,0E0,1.0110331E3,0E0,0E0],"parents":[2147483647,0,0,1,1,4,4],"right_children":[2,4,-1,-1,6,-1,-1],"split_conditions":[1E0,1E0,-5.4580938E-2,-5.4554034E-2,1E0,8.6381584E-2,-5.451637E-2],"split_indices":[3,0,0,0,1,0,0],"split_type":[0,0,0,0,0,0,0],"sum_hessian":[7.129411E3,4.508213E3,2.6211978E3,1.1241312E3,3.3840818E3,2.7603594E3,6.237224E2],"tree_param":{"num_deleted":"0","num_feature":"17","num_nodes":"7","size_leaf_vector":"1"}},{"base_weights":[4.453574E-5,-5.4585773E-2,5.2498376E-1,-5.454002E-2,8.6389504E-2],"categories":[],"categories_nodes":[],"categories_segments":[],"categories_sizes":[],"default_left":[0,0,0,0,0],"id":58,"left_children":[1,-1,3,-1,-1],"loss_changes":[2.0434946E3,0E0,1.3192288E3,0E0,0E0],"parents":[2147483647,0,0,2,2],"right_children":[2,-1,4,-1,-1],"split_conditions":[1E0,-5.4585773E-2,1E0,-5.454002E-2,8.6389504E-2],"split_indices":[1,0,3,0,0],"split_type":[0,0,0,0,0],"sum_hessian":[7.1289863E3,3.4946943E3,3.6342922E3,8.738383E2,2.7604539E3],"tree_param":{"num_deleted":"0","num_feature":"17","num_nodes":"5","size_leaf_vector":"1"}},{"base_weights":[2.594878E-5,-5.458599E-2,5.249661E-1,8.6388715E-2,-5.4540243E-2],"categories":[],"categories_nodes":[],"categories_segments":[],"categories_sizes":[],"default_left":[0,0,0,0,0],"id":59,"left_children":[1,-1,3,-1,-1],"loss_changes":[2.0434832E3,0E0,1.3192566E3,0E0,0E0],"parents":[2147483647,0,0,2,2],"right_children":[2,-1,4,-1,-1],"split_conditions":[1E0,-5.458599E-2,1E0,8.6388715E-2,-5.4540243E-2],"split_indices":[1,0,3,0,0],"split_type":[0,0,0,0,0],"sum_hessian":[7.129148E3,3.4948306E3,3.6343174E3,2.7604446E3,8.73873E2],"tree_param":{"num_deleted":"0","num_feature":"17","num_nodes":"5","size_leaf_vector":"1"}},{"base_weights":[-1.2379419E-5,3.6656088E-1,-5.4179817E-2,-5.4148603E-2,6.8441457E-1,8.1597745E-2,-5.4017182E-2],"categories":[],"categories_nodes":[],"categories_segments":[],"categories_sizes":[],"default_left":[0,0,0,0,0,0,0],"id":60,"left_children":[1,3,-1,-1,5,-1,-1],"loss_changes":[1.3377578E3,1.1599343E3,0E0,0E0,4.79953E2,0E0,0E0],"parents":[2147483647,0,0,1,1,4,4],"right_children":[2,4,-1,-1,6,-1,-1],"split_conditions":[1E0,1E0,-5.4179817E-2,-5.4148603E-2,1E0,8.1597745E-2,-5.4017182E-2],"split_indices":[0,3,0,0,1,0,0],"split_type":[0,0,0,0,0,0,0],"sum_hessian":[6.733799E3,4.0165303E3,2.7172686E3,1.0412307E3,2.9752998E3,2.686961E3,2.8833878E2],"tree_param":{"num_deleted":"0","num_feature":"17","num_nodes":"7","size_leaf_vector":"1"}},{"base_weights":[-6.69197E-6,-5.4177254E-2,3.0550835E-1,-5.4151025E-2,5.953218E-1,8.159618E-2,-5.409825E-2],"categories":[],"categories_nodes":[],"categories_segments":[],"categories_sizes":[],"default_left":[0,0,0,0,0,0,0],"id":61,"left_children":[1,-1,3,-1,5,-1,-1],"loss_changes":[1.114859E3,0E0,1.0575569E3,0E0,8.0507837E2,0E0,0E0],"parents":[2147483647,0,0,2,2,4,4],"right_children":[2,-1,4,-1,6,-1,-1],"split_conditions":[1E0,-5.4177254E-2,1E0,-5.4151025E-2,1E0,8.159618E-2,-5.409825E-2],"split_indices":[3,0,0,0,1,0,0],"split_type":[0,0,0,0,0,0,0],"sum_hessian":[6.7335913E3,2.4277395E3,4.305852E3,1.0974727E3,3.2083794E3,2.686931E3,5.214485E2],"tree_param":{"num_deleted":"0","num_feature":"17","num_nodes":"7","size_leaf_vector":"1"}},{"base_weights":[-1.7735989E-5,3.6655557E-1,-5.417989E-2,7.080498E-1,-5.4151267E-2,8.159774E-2,-5.3973343E-2],"categories":[],"categories_nodes":[],"categories_segments":[],"categories_sizes":[],"default_left":[0,0,0,0,0,0,0],"id":62,"left_children":[1,3,-1,5,-1,-1,-1],"loss_changes":[1.3377583E3,1.2462263E3,0E0,3.9368054E2,0E0,0E0,0E0],"parents":[2147483647,0,0,1,1,3,3],"right_children":[2,4,-1,6,-1,-1,-1],"split_conditions":[1E0,1E0,-5.417989E-2,1E0,-5.4151267E-2,8.159774E-2,-5.3973343E-2],"split_indices":[0,3,0,1,0,0,0],"split_type":[0,0,0,0,0,0,0],"sum_hessian":[6.7338584E3,4.0165518E3,2.7173066E3,2.9190244E3,1.0975275E3,2.6869607E3,2.3206375E2],"tree_param":{"num_deleted":"0","num_feature":"17","num_nodes":"7","size_leaf_vector":"1"}},{"base_weights":[-4.4486573E-5,3.0547056E-1,-5.417769E-2,-5.4148834E-2,5.756939E-1,8.159494E-2,-5.410844E-2],"categories":[],"categories_nodes":[],"categories_segments":[],"categories_sizes":[],"default_left":[0,0,0,0,0,0,0],"id":63,"left_children":[1,3,-1,-1,5,-1,-1],"loss_changes":[1.1148428E3,9.8603723E2,0E0,0E0,8.766627E2,0E0,0E0],"parents":[2147483647,0,0,1,1,4,4],"right_children":[2,4,-1,-1,6,-1,-1],"split_conditions":[1E0,1E0,-5.417769E-2,-5.4148834E-2,1E0,8.159494E-2,-5.410844E-2],"split_indices":[3,0,0,0,1,0,0],"split_type":[0,0,0,0,0,0,0],"sum_hessian":[6.7339087E3,4.305959E3,2.4279497E3,1.0412799E3,3.2646792E3,2.6869072E3,5.77772E2],"tree_param":{"num_deleted":"0","num_feature":"17","num_nodes":"7","size_leaf_vector":"1"}},{"base_weights":[4.9809736E-5,-5.4182917E-2,5.017305E-1,-5.413389E-2,8.160263E-2],"categories":[],"categories_nodes":[],"categories_segments":[],"categories_sizes":[],"default_left":[0,0,0,0,0],"id":64,"left_children":[1,-1,3,-1,-1],"loss_changes":[1.8310569E3,0E0,1.1470339E3,0E0,0E0],"parents":[2147483647,0,0,2,2],"right_children":[2,-1,4,-1,-1],"split_conditions":[1E0,-5.4182917E-2,1E0,-5.413389E-2,8.160263E-2],"split_indices":[1,0,3,0,0],"split_type":[0,0,0,0,0],"sum_hessian":[6.7335356E3,3.2370403E3,3.4964954E3,8.0944086E2,2.6870544E3],"tree_param":{"num_deleted":"0","num_feature":"17","num_nodes":"5","size_leaf_vector":"1"}},{"base_weights":[3.160921E-5,-5.4183107E-2,5.01714E-1,8.160196E-2,-5.4134097E-2],"categories":[],"categories_nodes":[],"categories_segments":[],"categories_sizes":[],"default_left":[0,0,0,0,0],"id":65,"left_children":[1,-1,3,-1,-1],"loss_changes":[1.8310476E3,0E0,1.1470599E3,0E0,0E0],"parents":[2147483647,0,0,2,2],"right_children":[2,-1,4,-1,-1],"split_conditions":[1E0,-5.4183107E-2,1E0,8.160196E-2,-5.4134097E-2],"split_indices":[1,0,3,0,0],"split_type":[0,0,0,0,0],"sum_hessian":[6.733681E3,3.2371663E3,3.496515E3,2.6870415E3,8.094734E2],"tree_param":{"num_deleted":"0","num_feature":"17","num_nodes":"5","size_leaf_vector":"1"}},{"base_weights":[-1.4464654E-5,3.5350448E-1,-5.38085E-2,-5.377495E-2,6.5342504E-1,7.758291E-2,-5.3633697E-2],"categories":[],"categories_nodes":[],"categories_segments":[],"categories_sizes":[],"default_left":[0,0,0,0,0,0,0],"id":66,"left_children":[1,3,-1,-1,5,-1,-1],"loss_changes":[1.2056521E3,1.0228248E3,0E0,0E0,4.172804E2,0E0,0E0],"parents":[2147483647,0,0,1,1,4,4],"right_children":[2,4,-1,-1,6,-1,-1],"split_conditions":[1E0,1E0,-5.38085E-2,-5.377495E-2,1E0,7.758291E-2,-5.3633697E-2],"split_indices":[0,3,0,0,1,0,0],"split_type":[0,0,0,0,0,0,0],"sum_hessian":[6.3362603E3,3.8241138E3,2.5121467E3,9.6265704E2,2.8614568E3,2.5948442E3,2.6661246E2],"tree_param":{"num_deleted":"0","num_feature":"17","num_nodes":"7","size_leaf_vector":"1"}},{"base_weights":[-1.1268473E-5,-5.380578E-2,2.9519922E-1,-5.3777575E-2,5.699684E-1,7.758125E-2,-5.3720832E-2],"categories":[],"categories_nodes":[],"categories_segments":[],"categories_sizes":[],"default_left":[0,0,0,0,0,0,0],"id":67,"left_children":[1,-1,3,-1,5,-1,-1],"loss_changes":[1.0067166E3,0E0,9.3699774E2,0E0,7.018928E2,0E0,0E0],"parents":[2147483647,0,0,2,2,4,4],"right_children":[2,-1,4,-1,6,-1,-1],"split_conditions":[1E0,-5.380578E-2,1E0,-5.3777575E-2,1E0,7.758125E-2,-5.3720832E-2],"split_indices":[3,0,0,0,1,0,0],"split_type":[0,0,0,0,0,0,0],"sum_hessian":[6.3360493E3,2.2444758E3,4.0915732E3,1.01465247E3,3.076921E3,2.5948E3,4.821208E2],"tree_param":{"num_deleted":"0","num_feature":"17","num_nodes":"7","size_leaf_vector":"1"}},{"base_weights":[-1.9429182E-5,3.5349965E-1,-5.380856E-2,6.7548585E-1,-5.3777803E-2,7.758292E-2,-5.3586584E-2],"categories":[],"categories_nodes":[],"categories_segments":[],"categories_sizes":[],"default_left":[0,0,0,0,0,0,0],"id":68,"left_children":[1,3,-1,5,-1,-1,-1],"loss_changes":[1.2056534E3,1.098097E3,0E0,3.4202686E2,0E0,0E0,0E0],"parents":[2147483647,0,0,1,1,3,3],"right_children":[2,4,-1,6,-1,-1,-1],"split_conditions":[1E0,1E0,-5.380856E-2,1E0,-5.3777803E-2,7.758292E-2,-5.3586584E-2],"split_indices":[0,3,0,1,0,0,0],"split_type":[0,0,0,0,0,0,0],"sum_hessian":[6.3363164E3,3.8241348E3,2.5121816E3,2.8094314E3,1.01470325E3,2.5948447E3,2.1458669E2],"tree_param":{"num_deleted":"0","num_feature":"17","num_nodes":"7","size_leaf_vector":"1"}},{"base_weights":[-4.8124482E-5,2.9516333E-1,-5.3806175E-2,-5.377516E-2,5.5152005E-1,7.758021E-2,-5.373172E-2],"categories":[],"categories_nodes":[],"categories_segments":[],"categories_sizes":[],"default_left":[0,0,0,0,0,0,0],"id":69,"left_children":[1,3,-1,-1,5,-1,-1],"loss_changes":[1.00670416E3,8.7417633E2,0E0,0E0,7.6477466E2,0E0,0E0],"parents":[2147483647,0,0,1,1,4,4],"right_children":[2,4,-1,-1,6,-1,-1],"split_conditions":[1E0,1E0,-5.3806175E-2,-5.377516E-2,1E0,7.758021E-2,-5.373172E-2],"split_indices":[3,0,0,0,1,0,0],"split_type":[0,0,0,0,0,0,0],"sum_hessian":[6.3363374E3,4.091666E3,2.2446714E3,9.6270264E2,3.1289634E3,2.5947717E3,5.341915E2],"tree_param":{"num_deleted":"0","num_feature":"17","num_nodes":"7","size_leaf_vector":"1"}},{"base_weights":[5.5592027E-5,-5.3811837E-2,4.8180056E-1,-5.3759158E-2,7.7587724E-2],"categories":[],"categories_nodes":[],"categories_segments":[],"categories_sizes":[],"default_left":[0,0,0,0,0],"id":70,"left_children":[1,-1,3,-1,-1],"loss_changes":[1.6432114E3,0E0,1.00298193E3,0E0,0E0],"parents":[2147483647,0,0,2,2],"right_children":[2,-1,4,-1,-1],"split_conditions":[1E0,-5.3811837E-2,1E0,-5.3759158E-2,7.7587724E-2],"split_indices":[1,0,3,0,0],"split_type":[0,0,0,0,0],"sum_hessian":[6.336019E3,2.992678E3,3.343341E3,7.4836584E2,2.5949753E3],"tree_param":{"num_deleted":"0","num_feature":"17","num_nodes":"5","size_leaf_vector":"1"}},{"base_weights":[3.7748105E-5,-5.381201E-2,4.8178512E-1,7.758715E-2,-5.3759344E-2],"categories":[],"categories_nodes":[],"categories_segments":[],"categories_sizes":[],"default_left":[0,0,0,0,0],"id":71,"left_children":[1,-1,3,-1,-1],"loss_changes":[1.6432046E3,0E0,1.0030059E3,0E0,0E0],"parents":[2147483647,0,0,2,2],"right_children":[2,-1,4,-1,-1],"split_conditions":[1E0,-5.381201E-2,1E0,7.758715E-2,-5.3759344E-2],"split_indices":[1,0,3,0,0],"split_type":[0,0,0,0,0],"sum_hessian":[6.336151E3,2.9927952E3,3.3433555E3,2.5949595E3,7.48396E2],"tree_param":{"num_deleted":"0","num_feature":"17","num_nodes":"5","size_leaf_vector":"1"}},{"base_weights":[-1.6641656E-5,3.4215167E-1,-5.3466953E-2,-5.3430803E-2,6.2698185E-1,7.418343E-2,-5.327862E-2],"categories":[],"categories_nodes":[],"categories_segments":[],"categories_sizes":[],"default_left":[0,0,0,0,0,0,0],"id":72,"left_children":[1,3,-1,-1,5,-1,-1],"loss_changes":[1.0873152E3,9.050724E2,0E0,0E0,3.64797E2,0E0,0E0],"parents":[2147483647,0,0,1,1,4,4],"right_children":[2,4,-1,-1,6,-1,-1],"split_conditions":[1E0,1E0,-5.3466953E-2,-5.3430803E-2,1E0,7.418343E-2,-5.327862E-2],"split_indices":[0,3,0,0,1,0,0],"split_type":[0,0,0,0,0,0,0],"sum_hessian":[5.9415205E3,3.6231372E3,2.318383E3,8.8843396E2,2.7347034E3,2.4886147E3,2.4608852E2],"tree_param":{"num_deleted":"0","num_feature":"17","num_nodes":"7","size_leaf_vector":"1"}},{"base_weights":[-1.6220181E-5,-5.3464066E-2,2.862021E-1,-5.3433664E-2,5.4822123E-1,7.418173E-2,-5.33725E-2],"categories":[],"categories_nodes":[],"categories_segments":[],"categories_sizes":[],"default_left":[0,0,0,0,0,0,0],"id":73,"left_children":[1,-1,3,-1,5,-1,-1],"loss_changes":[9.0944006E2,0E0,8.3253345E2,0E0,6.1506256E2,0E0,0E0],"parents":[2147483647,0,0,2,2,4,4],"right_children":[2,-1,4,-1,6,-1,-1],"split_conditions":[1E0,-5.3464066E-2,1E0,-5.3433664E-2,1E0,7.418173E-2,-5.33725E-2],"split_indices":[3,0,0,0,1,0,0],"split_type":[0,0,0,0,0,0,0],"sum_hessian":[5.9413027E3,2.0713604E3,3.8699421E3,9.364179E2,2.9335242E3,2.488554E3,4.4497028E2],"tree_param":{"num_deleted":"0","num_feature":"17","num_nodes":"7","size_leaf_vector":"1"}},{"base_weights":[-2.1281649E-5,3.4214726E-1,-5.3467013E-2,6.4773744E-1,-5.3433865E-2,7.4183464E-2,-5.322788E-2],"categories":[],"categories_nodes":[],"categories_segments":[],"categories_sizes":[],"default_left":[0,0,0,0,0,0,0],"id":74,"left_children":[1,3,-1,5,-1,-1,-1],"loss_changes":[1.0873174E3,9.710603E2,0E0,2.988263E2,0E0,0E0,0E0],"parents":[2147483647,0,0,1,1,3,3],"right_children":[2,4,-1,6,-1,-1,-1],"split_conditions":[1E0,1E0,-5.3467013E-2,1E0,-5.3433865E-2,7.4183464E-2,-5.322788E-2],"split_indices":[0,3,0,1,0,0,0],"split_type":[0,0,0,0,0,0,0],"sum_hessian":[5.941573E3,3.623158E3,2.3184155E3,2.686693E3,9.364649E2,2.4886165E3,1.9807668E2],"tree_param":{"num_deleted":"0","num_feature":"17","num_nodes":"7","size_leaf_vector":"1"}},{"base_weights":[-5.2238767E-5,2.861679E-1,-5.346442E-2,-5.3430993E-2,5.307607E-1,7.418084E-2,-5.3384166E-2],"categories":[],"categories_nodes":[],"categories_segments":[],"categories_sizes":[],"default_left":[0,0,0,0,0,0,0],"id":75,"left_children":[1,3,-1,-1,5,-1,-1],"loss_changes":[9.0943066E2,7.771317E2,0E0,0E0,6.7052014E2,0E0,0E0],"parents":[2147483647,0,0,1,1,4,4],"right_children":[2,4,-1,-1,6,-1,-1],"split_conditions":[1E0,1E0,-5.346442E-2,-5.3430993E-2,1E0,7.418084E-2,-5.3384166E-2],"split_indices":[3,0,0,0,1,0,0],"split_type":[0,0,0,0,0,0,0],"sum_hessian":[5.9415645E3,3.8700222E3,2.0715422E3,8.884761E2,2.9815461E3,2.4885225E3,4.9302365E2],"tree_param":{"num_deleted":"0","num_feature":"17","num_nodes":"7","size_leaf_vector":"1"}},{"base_weights":[6.200187E-5,-5.3470563E-2,4.6461174E-1,-5.3413816E-2,7.4188195E-2],"categories":[],"categories_nodes":[],"categories_segments":[],"categories_sizes":[],"default_left":[0,0,0,0,0],"id":76,"left_children":[1,-1,3,-1,-1],"loss_changes":[1.4764722E3,0E0,8.8114026E2,0E0,0E0],"parents":[2147483647,0,0,2,2],"right_children":[2,-1,4,-1,-1],"split_conditions":[1E0,-5.3470563E-2,1E0,-5.3413816E-2,7.4188195E-2],"split_indices":[1,0,3,0,0],"split_type":[0,0,0,0,0],"sum_hessian":[5.941304E3,2.7618464E3,3.1794578E3,6.9067267E2,2.4887852E3],"tree_param":{"num_deleted":"0","num_feature":"17","num_nodes":"5","size_leaf_vector":"1"}},{"base_weights":[4.440254E-5,-5.347072E-2,4.6459702E-1,7.418769E-2,-5.3413976E-2],"categories":[],"categories_nodes":[],"categories_segments":[],"categories_sizes":[],"default_left":[0,0,0,0,0],"id":77,"left_children":[1,-1,3,-1,-1],"loss_changes":[1.4764666E3,0E0,8.811617E2,0E0,0E0],"parents":[2147483647,0,0,2,2],"right_children":[2,-1,4,-1,-1],"split_conditions":[1E0,-5.347072E-2,1E0,7.418769E-2,-5.3413976E-2],"split_indices":[1,0,3,0,0],"split_type":[0,0,0,0,0],"sum_hessian":[5.9414224E3,2.761955E3,3.1794675E3,2.488767E3,6.907005E2],"tree_param":{"num_deleted":"0","num_feature":"17","num_nodes":"5","size_leaf_vector":"1"}},{"base_weights":[-1.9085455E-5,3.322366E-1,-5.3153228E-2,-5.3114176E-2,6.0426086E-1,7.128176E-2,-5.2949853E-2],"categories":[],"categories_nodes":[],"categories_segments":[],"categories_sizes":[],"default_left":[0,0,0,0,0,0,0],"id":78,"left_children":[1,3,-1,-1,5,-1,-1],"loss_changes":[9.811192E2,8.0321936E2,0E0,0E0,3.203839E2,0E0,0E0],"parents":[2147483647,0,0,1,1,4,4],"right_children":[2,4,-1,-1,6,-1,-1],"split_conditions":[1E0,1E0,-5.3153228E-2,-5.3114176E-2,1E0,7.128176E-2,-5.2949853E-2],"split_indices":[0,3,0,0,1,0,0],"split_type":[0,0,0,0,0,0,0],"sum_hessian":[5.5536553E3,3.4176274E3,2.1360276E3,8.1858057E2,2.5990469E3,2.3722744E3,2.267724E2],"tree_param":{"num_deleted":"0","num_feature":"17","num_nodes":"7","size_leaf_vector":"1"}},{"base_weights":[-2.150491E-5,-5.3150143E-2,2.7831915E-1,-5.3117294E-2,5.294515E-1,7.128002E-2,-5.3051222E-2],"categories":[],"categories_nodes":[],"categories_segments":[],"categories_sizes":[],"default_left":[0,0,0,0,0,0,0],"id":79,"left_children":[1,-1,3,-1,5,-1,-1],"loss_changes":[8.218285E2,0E0,7.4147363E2,0E0,5.4127405E2,0E0,0E0],"parents":[2147483647,0,0,2,2,4,4],"right_children":[2,-1,4,-1,6,-1,-1],"split_conditions":[1E0,-5.3150143E-2,1E0,-5.3117294E-2,1E0,7.128002E-2,-5.3051222E-2],"split_indices":[3,0,0,0,1,0,0],"split_type":[0,0,0,0,0,0,0],"sum_hessian":[5.55343E3,1.9084379E3,3.6449924E3,8.627893E2,2.7822031E3,2.3721968E3,4.1000644E2],"tree_param":{"num_deleted":"0","num_feature":"17","num_nodes":"7","size_leaf_vector":"1"}},{"base_weights":[-2.3283334E-5,3.322327E-1,-5.3153284E-2,6.239233E-1,-5.311748E-2,7.128182E-2,-5.289508E-2],"categories":[],"categories_nodes":[],"categories_segments":[],"categories_sizes":[],"default_left":[0,0,0,0,0,0,0],"id":80,"left_children":[1,3,-1,5,-1,-1,-1],"loss_changes":[9.811223E2,8.6131055E2,0E0,2.6230902E2,0E0,0E0,0E0],"parents":[2147483647,0,0,1,1,3,3],"right_children":[2,4,-1,6,-1,-1,-1],"split_conditions":[1E0,1E0,-5.3153284E-2,1E0,-5.311748E-2,7.128182E-2,-5.289508E-2],"split_indices":[0,3,0,1,0,0,0],"split_type":[0,0,0,0,0,0,0],"sum_hessian":[5.5537056E3,3.4176484E3,2.1360574E3,2.5548157E3,8.6283264E2,2.3722776E3,1.8253806E2],"tree_param":{"num_deleted":"0","num_feature":"17","num_nodes":"7","size_leaf_vector":"1"}},{"base_weights":[-5.6930163E-5,2.782862E-1,-5.315047E-2,-5.3114355E-2,5.1282555E-1,7.127925E-2,-5.306377E-2],"categories":[],"categories_nodes":[],"categories_segments":[],"categories_sizes":[],"default_left":[0,0,0,0,0,0,0],"id":81,"left_children":[1,3,-1,-1,5,-1,-1],"loss_changes":[8.2182117E2,6.924521E2,0E0,0E0,5.9034705E2,0E0,0E0],"parents":[2147483647,0,0,1,1,4,4],"right_children":[2,4,-1,-1,6,-1,-1],"split_conditions":[1E0,1E0,-5.315047E-2,-5.3114355E-2,1E0,7.127925E-2,-5.306377E-2],"split_indices":[3,0,0,0,1,0,0],"split_type":[0,0,0,0,0,0,0],"sum_hessian":[5.5536675E3,3.645061E3,1.9086064E3,8.186197E2,2.8264414E3,2.3721624E3,4.5427905E2],"tree_param":{"num_deleted":"0","num_feature":"17","num_nodes":"7","size_leaf_vector":"1"}},{"base_weights":[6.9039605E-5,-5.3157132E-2,4.4970644E-1,-5.3095866E-2,7.1286485E-2],"categories":[],"categories_nodes":[],"categories_segments":[],"categories_sizes":[],"default_left":[0,0,0,0,0],"id":82,"left_children":[1,-1,3,-1,-1],"loss_changes":[1.328009E3,0E0,7.7713434E2,0E0,0E0],"parents":[2147483647,0,0,2,2],"right_children":[2,-1,4,-1,-1],"split_conditions":[1E0,-5.3157132E-2,1E0,-5.3095866E-2,7.1286485E-2],"split_indices":[1,0,3,0,0],"split_type":[0,0,0,0,0],"sum_hessian":[5.5534673E3,2.5446052E3,3.008862E3,6.363761E2,2.372486E3],"tree_param":{"num_deleted":"0","num_feature":"17","num_nodes":"5","size_leaf_vector":"1"}},{"base_weights":[5.1704665E-5,-5.3157277E-2,4.4969246E-1,7.128604E-2,-5.3096015E-2],"categories":[],"categories_nodes":[],"categories_segments":[],"categories_sizes":[],"default_left":[0,0,0,0,0],"id":83,"left_children":[1,-1,3,-1,-1],"loss_changes":[1.3280044E3,0E0,7.7715405E2,0E0,0E0],"parents":[2147483647,0,0,2,2],"right_children":[2,-1,4,-1,-1],"split_conditions":[1E0,-5.3157277E-2,1E0,7.128604E-2,-5.3096015E-2],"split_indices":[1,0,3,0,0],"split_type":[0,0,0,0,0],"sum_hessian":[5.553573E3,2.5447053E3,3.0088677E3,2.3724658E3,6.364018E2],"tree_param":{"num_deleted":"0","num_feature":"17","num_nodes":"5","size_leaf_vector":"1"}},{"base_weights":[-2.1618192E-5,3.2354385E-1,-5.2865397E-2,-5.2823137E-2,5.8462125E-1,6.87879E-2,-5.2645333E-2],"categories":[],"categories_nodes":[],"categories_segments":[],"categories_sizes":[],"default_left":[0,0,0,0,0,0,0],"id":84,"left_children":[1,3,-1,-1,5,-1,-1],"loss_changes":[8.8568066E2,7.145895E2,0E0,0E0,2.824676E2,0E0,0E0],"parents":[2147483647,0,0,1,1,4,4],"right_children":[2,4,-1,-1,6,-1,-1],"split_conditions":[1E0,1E0,-5.2865397E-2,-5.2823137E-2,1E0,6.87879E-2,-5.2645333E-2],"split_indices":[0,3,0,0,1,0,0],"split_type":[0,0,0,0,0,0,0],"sum_hessian":[5.17599E3,3.2109927E3,1.9649974E3,7.530651E2,2.4579275E3,2.2492722E3,2.086553E2],"tree_param":{"num_deleted":"0","num_feature":"17","num_nodes":"7","size_leaf_vector":"1"}},{"base_weights":[-2.7283491E-5,-5.286209E-2,2.713882E-1,-5.282653E-2,5.131642E-1,6.878613E-2,-5.2755006E-2],"categories":[],"categories_nodes":[],"categories_segments":[],"categories_sizes":[],"default_left":[0,0,0,0,0,0,0],"id":85,"left_children":[1,-1,3,-1,5,-1,-1],"loss_changes":[7.4284503E2,0E0,6.617009E2,0E0,4.780478E2,0E0,0E0],"parents":[2147483647,0,0,2,2,4,4],"right_children":[2,-1,4,-1,6,-1,-1],"split_conditions":[1E0,-5.286209E-2,1E0,-5.282653E-2,1E0,6.878613E-2,-5.2755006E-2],"split_indices":[3,0,0,0,1,0,0],"split_type":[0,0,0,0,0,0,0],"sum_hessian":[5.175757E3,1.7556343E3,3.4201226E3,7.937332E2,2.6263894E3,2.249176E3,3.7721356E2],"tree_param":{"num_deleted":"0","num_feature":"17","num_nodes":"7","size_leaf_vector":"1"}},{"base_weights":[-2.5465912E-5,3.2354036E-1,-5.2865446E-2,6.033595E-1,-5.28267E-2,6.8787985E-2,-5.258609E-2],"categories":[],"categories_nodes":[],"categories_segments":[],"categories_sizes":[],"default_left":[0,0,0,0,0,0,0],"id":86,"left_children":[1,3,-1,5,-1,-1,-1],"loss_changes":[8.856842E2,7.659086E2,0E0,2.3116351E2,0E0,0E0,0E0],"parents":[2147483647,0,0,1,1,3,3],"right_children":[2,4,-1,6,-1,-1,-1],"split_conditions":[1E0,1E0,-5.2865446E-2,1E0,-5.28267E-2,6.8787985E-2,-5.258609E-2],"split_indices":[0,3,0,1,0,0,0],"split_type":[0,0,0,0,0,0,0],"sum_hessian":[5.1760386E3,3.2110137E3,1.965025E3,2.4172405E3,7.9377313E2,2.2492766E3,1.6796387E2],"tree_param":{"num_deleted":"0","num_feature":"17","num_nodes":"7","size_leaf_vector":"1"}},{"base_weights":[-6.2077335E-5,2.713564E-1,-5.2862383E-2,-5.2823294E-2,4.9724922E-1,6.878547E-2,-5.2768536E-2],"categories":[],"categories_nodes":[],"categories_segments":[],"categories_sizes":[],"default_left":[0,0,0,0,0,0,0],"id":87,"left_children":[1,3,-1,-1,5,-1,-1],"loss_changes":[7.4283923E2,6.182015E2,0E0,0E0,5.215942E2,0E0,0E0],"parents":[2147483647,0,0,1,1,4,4],"right_children":[2,4,-1,-1,6,-1,-1],"split_conditions":[1E0,1E0,-5.2862383E-2,-5.2823294E-2,1E0,6.878547E-2,-5.2768536E-2],"split_indices":[3,0,0,0,1,0,0],"split_type":[0,0,0,0,0,0,0],"sum_hessian":[5.175971E3,3.4201816E3,1.7557897E3,7.531014E2,2.6670803E3,2.2491401E3,4.179402E2],"tree_param":{"num_deleted":"0","num_feature":"17","num_nodes":"7","size_leaf_vector":"1"}},{"base_weights":[7.68105E-5,-5.286963E-2,4.3672016E-1,-5.2803345E-2,6.8792574E-2],"categories":[],"categories_nodes":[],"categories_segments":[],"categories_sizes":[],"default_left":[0,0,0,0,0],"id":88,"left_children":[1,-1,3,-1,-1],"loss_changes":[1.1954852E3,0E0,6.8766644E2,0E0,0E0],"parents":[2147483647,0,0,2,2],"right_children":[2,-1,4,-1,-1],"split_conditions":[1E0,-5.286963E-2,1E0,-5.2803345E-2,6.8792574E-2],"split_indices":[1,0,3,0,0],"split_type":[0,0,0,0,0],"sum_hessian":[5.1758325E3,2.340856E3,2.8349766E3,5.854515E2,2.2495251E3],"tree_param":{"num_deleted":"0","num_feature":"17","num_nodes":"5","size_leaf_vector":"1"}},{"base_weights":[5.9600912E-5,-5.2869763E-2,4.3670672E-1,6.879217E-2,-5.2803475E-2],"categories":[],"categories_nodes":[],"categories_segments":[],"categories_sizes":[],"default_left":[0,0,0,0,0],"id":89,"left_children":[1,-1,3,-1,-1],"loss_changes":[1.1954814E3,0E0,6.8768396E2,0E0,0E0],"parents":[2147483647,0,0,2,2],"right_children":[2,-1,4,-1,-1],"split_conditions":[1E0,-5.2869763E-2,1E0,6.879217E-2,-5.2803475E-2],"split_indices":[1,0,3,0,0],"split_type":[0,0,0,0,0],"sum_hessian":[5.175927E3,2.340948E3,2.8349785E3,2.2495034E3,5.854752E2],"tree_param":{"num_deleted":"0","num_feature":"17","num_nodes":"5","size_leaf_vector":"1"}},{"base_weights":[-2.4402227E-5,3.1589642E-1,-5.2601587E-2,-5.255576E-2,5.6755644E-1,6.663178E-2,-5.2363027E-2],"categories":[],"categories_nodes":[],"categories_segments":[],"categories_sizes":[],"default_left":[0,0,0,0,0,0,0],"id":90,"left_children":[1,3,-1,-1,5,-1,-1],"loss_changes":[7.998098E2,6.370737E2,0E0,0E0,2.4985571E2,0E0,0E0],"parents":[2147483647,0,0,1,1,4,4],"right_children":[2,4,-1,-1,6,-1,-1],"split_conditions":[1E0,1E0,-5.2601587E-2,-5.255576E-2,1E0,6.663178E-2,-5.2363027E-2],"split_indices":[0,3,0,0,1,0,0],"split_type":[0,0,0,0,0,0,0],"sum_hessian":[4.8111543E3,3.006057E3,1.8050974E3,6.91813E2,2.314244E3,2.1225273E3,1.9171664E2],"tree_param":{"num_deleted":"0","num_feature":"17","num_nodes":"7","size_leaf_vector":"1"}},{"base_weights":[-3.358055E-5,-5.259803E-2,2.652753E-1,-5.255946E-2,4.989646E-1,6.662997E-2,-5.2481897E-2],"categories":[],"categories_nodes":[],"categories_segments":[],"categories_sizes":[],"default_left":[0,0,0,0,0,0,0],"id":91,"left_children":[1,-1,3,-1,5,-1,-1],"loss_changes":[6.715857E2,0E0,5.915199E2,0E0,4.2349164E2,0E0,0E0],"parents":[2147483647,0,0,2,2,4,4],"right_children":[2,-1,4,-1,6,-1,-1],"split_conditions":[1E0,-5.259803E-2,1E0,-5.255946E-2,1E0,6.662997E-2,-5.2481897E-2],"split_indices":[3,0,0,0,1,0,0],"split_type":[0,0,0,0,0,0,0],"sum_hessian":[4.810912E3,1.6127747E3,3.1981372E3,7.291707E2,2.4689666E3,2.1224124E3,3.465542E2],"tree_param":{"num_deleted":"0","num_feature":"17","num_nodes":"7","size_leaf_vector":"1"}},{"base_weights":[-2.7872027E-5,3.1589332E-1,-5.260163E-2,5.855074E-1,-5.255961E-2,6.6631876E-2,-5.229884E-2],"categories":[],"categories_nodes":[],"categories_segments":[],"categories_sizes":[],"default_left":[0,0,0,0,0,0,0],"id":92,"left_children":[1,3,-1,5,-1,-1,-1],"loss_changes":[7.998139E2,6.825458E2,0E0,2.043977E2,0E0,0E0,0E0],"parents":[2147483647,0,0,1,1,3,3],"right_children":[2,4,-1,6,-1,-1,-1],"split_conditions":[1E0,1E0,-5.260163E-2,1E0,-5.255961E-2,6.6631876E-2,-5.229884E-2],"split_indices":[0,3,0,1,0,0,0],"split_type":[0,0,0,0,0,0,0],"sum_hessian":[4.8112007E3,3.0060781E3,1.8051228E3,2.2768706E3,7.2920746E2,2.1225332E3,1.5433751E2],"tree_param":{"num_deleted":"0","num_feature":"17","num_nodes":"7","size_leaf_vector":"1"}},{"base_weights":[-6.772457E-5,2.6524466E-1,-5.2598294E-2,-5.25559E-2,4.836593E-1,6.66294E-2,-5.249652E-2],"categories":[],"categories_nodes":[],"categories_segments":[],"categories_sizes":[],"default_left":[0,0,0,0,0,0,0],"id":93,"left_children":[1,3,-1,-1,5,-1,-1],"loss_changes":[6.7158154E2,5.528279E2,0E0,0E0,4.6222687E2,0E0,0E0],"parents":[2147483647,0,0,1,1,4,4],"right_children":[2,4,-1,-1,6,-1,-1],"split_conditions":[1E0,1E0,-5.2598294E-2,-5.25559E-2,1E0,6.66294E-2,-5.249652E-2],"split_indices":[3,0,0,0,1,0,0],"split_type":[0,0,0,0,0,0,0],"sum_hessian":[4.8111064E3,3.1981882E3,1.6129183E3,6.9184625E2,2.5063418E3,2.1223762E3,3.839658E2],"tree_param":{"num_deleted":"0","num_feature":"17","num_nodes":"7","size_leaf_vector":"1"}},{"base_weights":[8.538778E-5,-5.2606177E-2,4.25359E-1,-5.2534323E-2,6.6636406E-2],"categories":[],"categories_nodes":[],"categories_segments":[],"categories_sizes":[],"default_left":[0,0,0,0,0],"id":94,"left_children":[1,-1,3,-1,-1],"loss_changes":[1.0769464E3,0E0,6.102009E2,0E0,0E0],"parents":[2147483647,0,0,2,2],"right_children":[2,-1,4,-1,-1],"split_conditions":[1E0,-5.2606177E-2,1E0,-5.2534323E-2,6.6636406E-2],"split_indices":[1,0,3,0,0],"split_type":[0,0,0,0,0],"sum_hessian":[4.8110283E3,2.1503657E3,2.6606626E3,5.378407E2,2.1228218E3],"tree_param":{"num_deleted":"0","num_feature":"17","num_nodes":"5","size_leaf_vector":"1"}},{"base_weights":[6.821243E-5,-5.2606296E-2,4.2534593E-1,6.663604E-2,-5.2534442E-2],"categories":[],"categories_nodes":[],"categories_segments":[],"categories_sizes":[],"default_left":[0,0,0,0,0],"id":95,"left_children":[1,-1,3,-1,-1],"loss_changes":[1.0769429E3,0E0,6.102169E2,0E0,0E0],"parents":[2147483647,0,0,2,2],"right_children":[2,-1,4,-1,-1],"split_conditions":[1E0,-5.2606296E-2,1E0,6.663604E-2,-5.2534442E-2],"split_indices":[1,0,3,0,0],"split_type":[0,0,0,0,0],"sum_hessian":[4.8111123E3,2.150451E3,2.6606614E3,2.1227986E3,5.378626E2],"tree_param":{"num_deleted":"0","num_feature":"17","num_nodes":"5","size_leaf_vector":"1"}},{"base_weights":[-2.7485781E-5,3.0914795E-1,-5.236E-2,-5.231021E-2,5.5266124E-1,6.4758E-2,-5.2100953E-2],"categories":[],"categories_nodes":[],"categories_segments":[],"categories_sizes":[],"default_left":[0,0,0,0,0,0,0],"id":96,"left_children":[1,3,-1,-1,5,-1,-1],"loss_changes":[7.224753E2,5.68986E2,0E0,0E0,2.2162756E2,0E0,0E0],"parents":[2147483647,0,0,1,1,4,4],"right_children":[2,4,-1,-1,6,-1,-1],"split_conditions":[1E0,1E0,-5.236E-2,-5.231021E-2,1E0,6.4758E-2,-5.2100953E-2],"split_indices":[0,3,0,0,1,0,0],"split_type":[0,0,0,0,0,0,0],"sum_hessian":[4.461147E3,2.8051082E3,1.6560386E3,6.347135E2,2.1703948E3,1.9944689E3,1.759259E2],"tree_param":{"num_deleted":"0","num_feature":"17","num_nodes":"7","size_leaf_vector":"1"}},{"base_weights":[-4.036844E-5,-5.235616E-2,2.59869E-1,-5.231425E-2,4.8653406E-1,6.4756185E-2,-5.2229997E-2],"categories":[],"categories_nodes":[],"categories_segments":[],"categories_sizes":[],"default_left":[0,0,0,0,0,0,0],"id":97,"left_children":[1,-1,3,-1,5,-1,-1],"loss_changes":[6.0725745E2,0E0,5.2955597E2,0E0,3.7613586E2,0E0,0E0],"parents":[2147483647,0,0,2,2,4,4],"right_children":[2,-1,4,-1,6,-1,-1],"split_conditions":[1E0,-5.235616E-2,1E0,-5.231425E-2,1E0,6.4756185E-2,-5.2229997E-2],"split_indices":[3,0,0,0,1,0,0],"split_type":[0,0,0,0,0,0,0],"sum_hessian":[4.4608945E3,1.479601E3,2.9812937E3,6.689851E2,2.3123086E3,1.9943354E3,3.1797314E2],"tree_param":{"num_deleted":"0","num_feature":"17","num_nodes":"7","size_leaf_vector":"1"}},{"base_weights":[-3.0567127E-5,3.0914527E-1,-5.2360035E-2,5.699368E-1,-5.231439E-2,6.47581E-2,-5.2031305E-2],"categories":[],"categories_nodes":[],"categories_segments":[],"categories_sizes":[],"default_left":[0,0,0,0,0,0,0],"id":98,"left_children":[1,3,-1,5,-1,-1,-1],"loss_changes":[7.224796E2,6.0937976E2,0E0,1.8124677E2,0E0,0E0,0E0],"parents":[2147483647,0,0,1,1,3,3],"right_children":[2,4,-1,6,-1,-1,-1],"split_conditions":[1E0,1E0,-5.2360035E-2,1E0,-5.231439E-2,6.47581E-2,-5.2031305E-2],"split_indices":[0,3,0,1,0,0,0],"split_type":[0,0,0,0,0,0,0],"sum_hessian":[4.461192E3,2.80513E3,1.6560619E3,2.1361108E3,6.69019E2,1.9944764E3,1.4163443E2],"tree_param":{"num_deleted":"0","num_feature":"17","num_nodes":"7","size_leaf_vector":"1"}},{"base_weights":[-7.406768E-5,2.598392E-1,-5.23564E-2,-5.2310336E-2,4.7175458E-1,6.475568E-2,-5.2245833E-2],"categories":[],"categories_nodes":[],"categories_segments":[],"categories_sizes":[],"default_left":[0,0,0,0,0,0,0],"id":99,"left_children":[1,3,-1,-1,5,-1,-1],"loss_changes":[6.072543E2,4.9506906E2,0E0,0E0,4.10662E2,0E0,0E0],"parents":[2147483647,0,0,1,1,4,4],"right_children":[2,4,-1,-1,6,-1,-1],"split_conditions":[1E0,1E0,-5.23564E-2,-5.2310336E-2,1E0,6.475568E-2,-5.2245833E-2],"split_indices":[3,0,0,0,1,0,0],"split_type":[0,0,0,0,0,0,0],"sum_hessian":[4.461071E3,2.9813374E3,1.4797334E3,6.34744E2,2.3465935E3,1.9942992E3,3.5229428E2],"tree_param":{"num_deleted":"0","num_feature":"17","num_nodes":"7","size_leaf_vector":"1"}},{"base_weights":[9.477849E-5,-5.2364983E-2,4.1538325E-1,-5.228696E-2,6.4762585E-2],"categories":[],"categories_nodes":[],"categories_segments":[],"categories_sizes":[],"default_left":[0,0,0,0,0],"id":100,"left_children":[1,-1,3,-1,-1],"loss_changes":[9.707367E2,0E0,5.4275464E2,0E0,0E0],"parents":[2147483647,0,0,2,2],"right_children":[2,-1,4,-1,-1],"split_conditions":[1E0,-5.2364983E-2,1E0,-5.228696E-2,6.4762585E-2],"split_indices":[1,0,3,0,0],"split_type":[0,0,0,0,0],"sum_hessian":[4.4610527E3,1.9727903E3,2.4882625E3,4.9345767E2,1.9948047E3],"tree_param":{"num_deleted":"0","num_feature":"17","num_nodes":"5","size_leaf_vector":"1"}},{"base_weights":[7.775008E-5,-5.236509E-2,4.153706E-1,6.4762264E-2,-5.228707E-2],"categories":[],"categories_nodes":[],"categories_segments":[],"categories_sizes":[],"default_left":[0,0,0,0,0],"id":101,"left_children":[1,-1,3,-1,-1],"loss_changes":[9.7073364E2,0E0,5.4276917E2,0E0,0E0],"parents":[2147483647,0,0,2,2],"right_children":[2,-1,4,-1,-1],"split_conditions":[1E0,-5.236509E-2,1E0,6.4762264E-2,-5.228707E-2],"split_indices":[1,0,3,0,0],"split_type":[0,0,0,0,0],"sum_hessian":[4.461127E3,1.9728684E3,2.4882588E3,1.9947809E3,4.9347784E2],"tree_param":{"num_deleted":"0","num_feature":"17","num_nodes":"5","size_leaf_vector":"1"}},{"base_weights":[-3.090506E-5,3.0317637E-1,-5.213889E-2,-5.2084725E-2,5.396074E-1,6.3122235E-2,-5.185718E-2],"categories":[],"categories_nodes":[],"categories_segments":[],"categories_sizes":[],"default_left":[0,0,0,0,0,0,0],"id":102,"left_children":[1,3,-1,-1,5,-1,-1],"loss_changes":[6.5277527E2,5.0895923E2,0E0,0E0,1.9706055E2,0E0,0E0],"parents":[2147483647,0,0,1,1,4,4],"right_children":[2,4,-1,-1,6,-1,-1],"split_conditions":[1E0,1E0,-5.213889E-2,-5.2084725E-2,1E0,6.3122235E-2,-5.185718E-2],"split_indices":[0,3,0,0,1,0,0],"split_type":[0,0,0,0,0,0,0],"sum_hessian":[4.12741E3,2.6099526E3,1.5174573E3,5.8162726E2,2.0283254E3,1.8670808E3,1.6124457E2],"tree_param":{"num_deleted":"0","num_feature":"17","num_nodes":"7","size_leaf_vector":"1"}},{"base_weights":[-4.790624E-5,-5.213474E-2,2.5507528E-1,-5.2089136E-2,4.7561213E-1,6.312041E-2,-5.1997483E-2],"categories":[],"categories_nodes":[],"categories_segments":[],"categories_sizes":[],"default_left":[0,0,0,0,0,0,0],"id":103,"left_children":[1,-1,3,-1,5,-1,-1],"loss_changes":[5.4915845E2,0E0,4.7467957E2,0E0,3.348199E2,0E0,0E0],"parents":[2147483647,0,0,2,2,4,4],"right_children":[2,-1,4,-1,6,-1,-1],"split_conditions":[1E0,-5.213474E-2,1E0,-5.2089136E-2,1E0,6.312041E-2,-5.1997483E-2],"split_indices":[3,0,0,0,1,0,0],"split_type":[0,0,0,0,0,0,0],"sum_hessian":[4.1271484E3,1.3557886E3,2.7713596E3,6.130301E2,2.1583296E3,1.8669288E3,2.9140067E2],"tree_param":{"num_deleted":"0","num_feature":"17","num_nodes":"7","size_leaf_vector":"1"}},{"base_weights":[-3.3487842E-5,3.0317417E-1,-5.2138925E-2,5.563003E-1,-5.2089255E-2,6.3122354E-2,-5.1781505E-2],"categories":[],"categories_nodes":[],"categories_segments":[],"categories_sizes":[],"default_left":[0,0,0,0,0,0,0],"id":104,"left_children":[1,3,-1,5,-1,-1,-1],"loss_changes":[6.527802E2,5.449204E2,0E0,1.6111145E2,0E0,0E0,0E0],"parents":[2147483647,0,0,1,1,3,3],"right_children":[2,4,-1,6,-1,-1,-1],"split_conditions":[1E0,1E0,-5.2138925E-2,1E0,-5.2089255E-2,6.3122354E-2,-5.1781505E-2],"split_indices":[0,3,0,1,0,0,0],"split_type":[0,0,0,0,0,0,0],"sum_hessian":[4.127454E3,2.6099753E3,1.5174788E3,1.9969141E3,6.1306116E2,1.8670903E3,1.2982375E2],"tree_param":{"num_deleted":"0","num_feature":"17","num_nodes":"7","size_leaf_vector":"1"}},{"base_weights":[-8.113317E-5,2.5504634E-1,-5.2134957E-2,-5.2084845E-2,4.6128887E-1,6.311997E-2,-5.201466E-2],"categories":[],"categories_nodes":[],"categories_segments":[],"categories_sizes":[],"default_left":[0,0,0,0,0,0,0],"id":105,"left_children":[1,3,-1,-1,5,-1,-1],"loss_changes":[5.4915625E2,4.4388608E2,0E0,0E0,3.6564877E2,0E0,0E0],"parents":[2147483647,0,0,1,1,4,4],"right_children":[2,4,-1,-1,6,-1,-1],"split_conditions":[1E0,1E0,-5.2134957E-2,-5.2084845E-2,1E0,6.311997E-2,-5.201466E-2],"split_indices":[3,0,0,0,1,0,0],"split_type":[0,0,0,0,0,0,0],"sum_hessian":[4.1273076E3,2.771397E3,1.3559105E3,5.816553E2,2.189742E3,1.8668932E3,3.2284863E2],"tree_param":{"num_deleted":"0","num_feature":"17","num_nodes":"7","size_leaf_vector":"1"}},{"base_weights":[1.0512547E-4,-5.214432E-2,4.0659553E-1,-5.2059453E-2,6.3126795E-2],"categories":[],"categories_nodes":[],"categories_segments":[],"categories_sizes":[],"default_left":[0,0,0,0,0],"id":106,"left_children":[1,-1,3,-1,-1],"loss_changes":[8.7544E2,0E0,4.8375293E2,0E0,0E0],"parents":[2147483647,0,0,2,2],"right_children":[2,-1,4,-1,-1],"split_conditions":[1E0,-5.214432E-2,1E0,-5.2059453E-2,6.3126795E-2],"split_indices":[1,0,3,0,0],"split_type":[0,0,0,0,0],"sum_hessian":[4.127348E3,1.8076968E3,2.3196516E3,4.5219443E2,1.8674572E3],"tree_param":{"num_deleted":"0","num_feature":"17","num_nodes":"5","size_leaf_vector":"1"}},{"base_weights":[8.810643E-5,-5.2144416E-2,4.065832E-1,6.3126504E-2,-5.205955E-2],"categories":[],"categories_nodes":[],"categories_segments":[],"categories_sizes":[],"default_left":[0,0,0,0,0],"id":107,"left_children":[1,-1,3,-1,-1],"loss_changes":[8.7543713E2,0E0,4.8376602E2,0E0,0E0],"parents":[2147483647,0,0,2,2],"right_children":[2,-1,4,-1,-1],"split_conditions":[1E0,-5.2144416E-2,1E0,6.3126504E-2,-5.205955E-2],"split_indices":[1,0,3,0,0],"split_type":[0,0,0,0,0],"sum_hessian":[4.127415E3,1.8077689E3,2.319646E3,1.8674329E3,4.5221304E2],"tree_param":{"num_deleted":"0","num_feature":"17","num_nodes":"5","size_leaf_vector":"1"}},{"base_weights":[-3.4549947E-5,2.9787928E-1,-5.1936626E-2,-5.1877614E-2,5.281267E-1,6.1688602E-2,-5.162988E-2],"categories":[],"categories_nodes":[],"categories_segments":[],"categories_sizes":[],"default_left":[0,0,0,0,0,0,0],"id":108,"left_children":[1,3,-1,-1,5,-1,-1],"loss_changes":[5.8991766E2,4.55872E2,0E0,0E0,1.7557965E2,0E0,0E0],"parents":[2147483647,0,0,1,1,4,4],"right_children":[2,4,-1,-1,6,-1,-1],"split_conditions":[1E0,1E0,-5.1936626E-2,-5.1877614E-2,1E0,6.1688602E-2,-5.162988E-2],"split_indices":[0,3,0,0,1,0,0],"split_type":[0,0,0,0,0,0,0],"sum_hessian":[3.8109043E3,2.4219707E3,1.3889333E3,5.323933E2,1.8895775E3,1.7419493E3,1.4762819E2],"tree_param":{"num_deleted":"0","num_feature":"17","num_nodes":"7","size_leaf_vector":"1"}},{"base_weights":[-5.6095003E-5,-5.1932126E-2,2.5081518E-1,-5.1882435E-2,4.659847E-1,6.168675E-2,-5.1782604E-2],"categories":[],"categories_nodes":[],"categories_segments":[],"categories_sizes":[],"default_left":[0,0,0,0,0,0,0],"id":109,"left_children":[1,-1,3,-1,5,-1,-1],"loss_changes":[4.9666666E2,0E0,4.2595242E2,0E0,2.9861502E2,0E0,0E0],"parents":[2147483647,0,0,2,2,4,4],"right_children":[2,-1,4,-1,6,-1,-1],"split_conditions":[1E0,-5.1932126E-2,1E0,-5.1882435E-2,1E0,6.168675E-2,-5.1782604E-2],"split_indices":[3,0,0,0,1,0,0],"split_type":[0,0,0,0,0,0,0],"sum_hessian":[3.810632E3,1.2409614E3,2.5696704E3,5.611353E2,2.0085352E3,1.741779E3,2.6675613E2],"tree_param":{"num_deleted":"0","num_feature":"17","num_nodes":"7","size_leaf_vector":"1"}},{"base_weights":[-3.6598878E-5,2.978775E-1,-5.1936653E-2,5.4431397E-1,-5.1882546E-2,6.168872E-2,-5.1547535E-2],"categories":[],"categories_nodes":[],"categories_segments":[],"categories_sizes":[],"default_left":[0,0,0,0,0,0,0],"id":110,"left_children":[1,3,-1,5,-1,-1,-1],"loss_changes":[5.899227E2,4.879474E2,0E0,1.4351556E2,0E0,0E0,0E0],"parents":[2147483647,0,0,1,1,3,3],"right_children":[2,4,-1,6,-1,-1,-1],"split_conditions":[1E0,1E0,-5.1936653E-2,1E0,-5.1882546E-2,6.168872E-2,-5.1547535E-2],"split_indices":[0,3,0,1,0,0,0],"split_type":[0,0,0,0,0,0,0],"sum_hessian":[3.810947E3,2.4219941E3,1.3889529E3,1.8608304E3,5.611638E2,1.7419608E3,1.1886964E2],"tree_param":{"num_deleted":"0","num_feature":"17","num_nodes":"7","size_leaf_vector":"1"}},{"base_weights":[-8.894402E-5,2.5078693E-1,-5.1932316E-2,-5.187772E-2,4.5205885E-1,6.1686363E-2,-5.180127E-2],"categories":[],"categories_nodes":[],"categories_segments":[],"categories_sizes":[],"default_left":[0,0,0,0,0,0,0],"id":111,"left_children":[1,3,-1,-1,5,-1,-1],"loss_changes":[4.9666495E2,3.9841492E2,0E0,0E0,3.261849E2,0E0,0E0],"parents":[2147483647,0,0,1,1,4,4],"right_children":[2,4,-1,-1,6,-1,-1],"split_conditions":[1E0,1E0,-5.1932316E-2,-5.187772E-2,1E0,6.1686363E-2,-5.180127E-2],"split_indices":[3,0,0,0,1,0,0],"split_type":[0,0,0,0,0,0,0],"sum_hessian":[3.8107761E3,2.5697026E3,1.2410736E3,5.3241895E2,2.0372836E3,1.741744E3,2.9553955E2],"tree_param":{"num_deleted":"0","num_feature":"17","num_nodes":"7","size_leaf_vector":"1"}},{"base_weights":[1.1649903E-4,-5.1942546E-2,3.988322E-1,-5.185011E-2,6.1693113E-2],"categories":[],"categories_nodes":[],"categories_segments":[],"categories_sizes":[],"default_left":[0,0,0,0,0],"id":112,"left_children":[1,-1,3,-1,-1],"loss_changes":[7.8983514E2,0E0,4.319276E2,0E0,0E0],"parents":[2147483647,0,0,2,2],"right_children":[2,-1,4,-1,-1],"split_conditions":[1E0,-5.1942546E-2,1E0,-5.185011E-2,6.1693113E-2],"split_indices":[1,0,3,0,0],"split_type":[0,0,0,0,0],"sum_hessian":[3.8108745E3,1.6545845E3,2.15629E3,4.1392532E2,1.7423647E3],"tree_param":{"num_deleted":"0","num_feature":"17","num_nodes":"5","size_leaf_vector":"1"}},{"base_weights":[9.935818E-5,-5.1942628E-2,3.9881995E-1,6.1692834E-2,-5.18502E-2],"categories":[],"categories_nodes":[],"categories_segments":[],"categories_sizes":[],"default_left":[0,0,0,0,0],"id":113,"left_children":[1,-1,3,-1,-1],"loss_changes":[7.8983203E2,0E0,4.3193945E2,0E0,0E0],"parents":[2147483647,0,0,2,2],"right_children":[2,-1,4,-1,-1],"split_conditions":[1E0,-5.1942628E-2,1E0,6.1692834E-2,-5.18502E-2],"split_indices":[1,0,3,0,0],"split_type":[0,0,0,0,0],"sum_hessian":[3.8109324E3,1.6546504E3,2.156282E3,1.7423395E3,4.1394247E2],"tree_param":{"num_deleted":"0","num_feature":"17","num_nodes":"5","size_leaf_vector":"1"}},{"base_weights":[-3.847273E-5,2.931697E-1,-5.1751643E-2,-5.168727E-2,5.179974E-1,6.042769E-2,-5.141722E-2],"categories":[],"categories_nodes":[],"categories_segments":[],"categories_sizes":[],"default_left":[0,0,0,0,0,0,0],"id":114,"left_children":[1,3,-1,-1,5,-1,-1],"loss_changes":[5.332015E2,4.0879413E2,0E0,0E0,1.5672144E2,0E0,0E0],"parents":[2147483647,0,0,1,1,4,4],"right_children":[2,4,-1,-1,6,-1,-1],"split_conditions":[1E0,1E0,-5.1751643E-2,-5.168727E-2,1E0,6.042769E-2,-5.141722E-2],"split_indices":[0,3,0,0,1,0,0],"split_type":[0,0,0,0,0,0,0],"sum_hessian":[3.5121753E3,2.2421719E3,1.2700034E3,4.8683426E2,1.7553375E3,1.6203097E3,1.3502782E2],"tree_param":{"num_deleted":"0","num_feature":"17","num_nodes":"7","size_leaf_vector":"1"}},{"base_weights":[-6.4984444E-5,-5.1746756E-2,2.4702129E-1,-5.1692545E-2,4.5747358E-1,6.0425825E-2,-5.1583674E-2],"categories":[],"categories_nodes":[],"categories_segments":[],"categories_sizes":[],"default_left":[0,0,0,0,0,0,0],"id":115,"left_children":[1,-1,3,-1,5,-1,-1],"loss_changes":[4.4922693E2,0E0,3.8258798E2,0E0,2.6676913E2,0E0,0E0],"parents":[2147483647,0,0,2,2,4,4],"right_children":[2,-1,4,-1,6,-1,-1],"split_conditions":[1E0,-5.1746756E-2,1E0,-5.1692545E-2,1E0,6.0425825E-2,-5.1583674E-2],"split_indices":[3,0,0,0,1,0,0],"split_type":[0,0,0,0,0,0,0],"sum_hessian":[3.511893E3,1.134706E3,2.377187E3,5.131142E2,1.8640728E3,1.6201218E3,2.4395099E2],"tree_param":{"num_deleted":"0","num_feature":"17","num_nodes":"7","size_leaf_vector":"1"}},{"base_weights":[-4.0086405E-5,2.9316834E-1,-5.1751673E-2,5.33744E-1,-5.1692646E-2,6.042781E-2,-5.1327538E-2],"categories":[],"categories_nodes":[],"categories_segments":[],"categories_sizes":[],"default_left":[0,0,0,0,0,0,0],"id":116,"left_children":[1,3,-1,5,-1,-1,-1],"loss_changes":[5.332069E2,4.3745026E2,0E0,1.2807584E2,0E0,0E0,0E0],"parents":[2147483647,0,0,1,1,3,3],"right_children":[2,4,-1,6,-1,-1,-1],"split_conditions":[1E0,1E0,-5.1751673E-2,1E0,-5.1692646E-2,6.042781E-2,-5.1327538E-2],"split_indices":[0,3,0,1,0,0,0],"split_type":[0,0,0,0,0,0,0],"sum_hessian":[3.512217E3,2.2421958E3,1.2700212E3,1.7290554E3,5.1314026E2,1.6203226E3,1.0873279E2],"tree_param":{"num_deleted":"0","num_feature":"17","num_nodes":"7","size_leaf_vector":"1"}},{"base_weights":[-9.748181E-5,2.4699365E-1,-5.1746942E-2,-5.168737E-2,4.4389546E-1,6.0425486E-2,-5.1604E-2],"categories":[],"categories_nodes":[],"categories_segments":[],"categories_sizes":[],"default_left":[0,0,0,0,0,0,0],"id":117,"left_children":[1,3,-1,-1,5,-1,-1],"loss_changes":[4.4922574E2,3.5792926E2,0E0,0E0,2.9145712E2,0E0,0E0],"parents":[2147483647,0,0,1,1,4,4],"right_children":[2,4,-1,-1,6,-1,-1],"split_conditions":[1E0,1E0,-5.1746942E-2,-5.168737E-2,1E0,6.0425486E-2,-5.1604E-2],"split_indices":[3,0,0,0,1,0,0],"split_type":[0,0,0,0,0,0,0],"sum_hessian":[3.5120234E3,2.3772146E3,1.1348088E3,4.8685773E2,1.8903568E3,1.620088E3,2.702688E2],"tree_param":{"num_deleted":"0","num_feature":"17","num_nodes":"7","size_leaf_vector":"1"}},{"base_weights":[1.290851E-4,-5.17581E-2,3.9195606E-1,-5.1657308E-2,6.0432166E-2],"categories":[],"categories_nodes":[],"categories_segments":[],"categories_sizes":[],"default_left":[0,0,0,0,0],"id":118,"left_children":[1,-1,3,-1,-1],"loss_changes":[7.128606E2,0E0,3.8624603E2,0E0,0E0],"parents":[2147483647,0,0,2,2],"right_children":[2,-1,4,-1,-1],"split_conditions":[1E0,-5.17581E-2,1E0,-5.1657308E-2,6.0432166E-2],"split_indices":[1,0,3,0,0],"split_type":[0,0,0,0,0],"sum_hessian":[3.5121772E3,1.5129015E3,1.9992756E3,3.7851297E2,1.6207627E3],"tree_param":{"num_deleted":"0","num_feature":"17","num_nodes":"5","size_leaf_vector":"1"}},{"base_weights":[1.1190147E-4,-5.175818E-2,3.9194408E-1,6.0431916E-2,-5.165739E-2],"categories":[],"categories_nodes":[],"categories_segments":[],"categories_sizes":[],"default_left":[0,0,0,0,0],"id":119,"left_children":[1,-1,3,-1,-1],"loss_changes":[7.128577E2,0E0,3.8625668E2,0E0,0E0],"parents":[2147483647,0,0,2,2],"right_children":[2,-1,4,-1,-1],"split_conditions":[1E0,-5.175818E-2,1E0,6.0431916E-2,-5.165739E-2],"split_indices":[1,0,3,0,0],"split_type":[0,0,0,0,0],"sum_hessian":[3.5122275E3,1.5129619E3,1.9992657E3,1.620737E3,3.785286E2],"tree_param":{"num_deleted":"0","num_feature":"17","num_nodes":"5","size_leaf_vector":"1"}},{"base_weights":[-4.2791376E-5,2.8897372E-1,-5.1582493E-2,-5.151218E-2,5.090347E-1,5.9315223E-2,-5.1217504E-2],"categories":[],"categories_nodes":[],"categories_segments":[],"categories_sizes":[],"default_left":[0,0,0,0,0,0,0],"id":120,"left_children":[1,3,-1,-1,5,-1,-1],"loss_changes":[4.8200543E2,3.669469E2,0E0,0E0,1.401076E2,0E0,0E0],"parents":[2147483647,0,0,1,1,4,4],"right_children":[2,4,-1,-1,6,-1,-1],"split_conditions":[1E0,1E0,-5.1582493E-2,-5.151218E-2,1E0,5.9315223E-2,-5.1217504E-2],"split_indices":[0,3,0,0,1,0,0],"split_type":[0,0,0,0,0,0,0],"sum_hessian":[3.2314265E3,2.0712495E3,1.1601769E3,4.4476227E2,1.6264873E3,1.5030957E3,1.23391525E2],"tree_param":{"num_deleted":"0","num_feature":"17","num_nodes":"7","size_leaf_vector":"1"}},{"base_weights":[-7.486575E-5,-5.157717E-2,2.436358E-1,-5.1517952E-2,4.4992945E-1,5.9313353E-2,-5.1399082E-2],"categories":[],"categories_nodes":[],"categories_segments":[],"categories_sizes":[],"default_left":[0,0,0,0,0,0,0],"id":121,"left_children":[1,-1,3,-1,5,-1,-1],"loss_changes":[4.0634286E2,0E0,3.4392047E2,0E0,2.386651E2,0E0,0E0],"parents":[2147483647,0,0,2,2,4,4],"right_children":[2,-1,4,-1,6,-1,-1],"split_conditions":[1E0,-5.157717E-2,1E0,-5.1517952E-2,1E0,5.9313353E-2,-5.1399082E-2],"split_indices":[3,0,0,0,1,0,0],"split_type":[0,0,0,0,0,0,0],"sum_hessian":[3.2311338E3,1.0365841E3,2.1945498E3,4.687686E2,1.7257812E3,1.5028901E3,2.2289107E2],"tree_param":{"num_deleted":"0","num_feature":"17","num_nodes":"7","size_leaf_vector":"1"}},{"base_weights":[-4.3906035E-5,2.8897277E-1,-5.1582515E-2,5.243956E-1,-5.151805E-2,5.9315354E-2,-5.1119734E-2],"categories":[],"categories_nodes":[],"categories_segments":[],"categories_sizes":[],"default_left":[0,0,0,0,0,0,0],"id":122,"left_children":[1,3,-1,5,-1,-1,-1],"loss_changes":[4.8201096E2,3.9258478E2,0E0,1.1447952E2,0E0,0E0,0E0],"parents":[2147483647,0,0,1,1,3,3],"right_children":[2,4,-1,6,-1,-1,-1],"split_conditions":[1E0,1E0,-5.1582515E-2,1E0,-5.151805E-2,5.9315354E-2,-5.1119734E-2],"split_indices":[0,3,0,1,0,0,0],"split_type":[0,0,0,0,0,0,0],"sum_hessian":[3.2314673E3,2.0712742E3,1.1601932E3,1.6024816E3,4.6879248E2,1.5031102E3,9.9371414E1],"tree_param":{"num_deleted":"0","num_feature":"17","num_nodes":"7","size_leaf_vector":"1"}},{"base_weights":[-1.0686917E-4,2.4360888E-1,-5.157733E-2,-5.151227E-2,4.3665695E-1,5.931306E-2,-5.1421244E-2],"categories":[],"categories_nodes":[],"categories_segments":[],"categories_sizes":[],"default_left":[0,0,0,0,0,0,0],"id":123,"left_children":[1,3,-1,-1,5,-1,-1],"loss_changes":[4.0634225E2,3.2181433E2,0E0,0E0,2.60798E2,0E0,0E0],"parents":[2147483647,0,0,1,1,4,4],"right_children":[2,4,-1,-1,6,-1,-1],"split_conditions":[1E0,1E0,-5.157733E-2,-5.151227E-2,1E0,5.931306E-2,-5.1421244E-2],"split_indices":[3,0,0,0,1,0,0],"split_type":[0,0,0,0,0,0,0],"sum_hessian":[3.2312522E3,2.194574E3,1.0366782E3,4.447838E2,1.7497902E3,1.5028583E3,2.4693188E2],"tree_param":{"num_deleted":"0","num_feature":"17","num_nodes":"7","size_leaf_vector":"1"}},{"base_weights":[1.4291298E-4,-5.1589537E-2,3.858516E-1,-5.1479485E-2,5.9319675E-2],"categories":[],"categories_nodes":[],"categories_segments":[],"categories_sizes":[],"default_left":[0,0,0,0,0],"id":124,"left_children":[1,-1,3,-1,-1],"loss_changes":[6.435889E2,0E0,3.4585678E2,0E0,0E0],"parents":[2147483647,0,0,2,2],"right_children":[2,-1,4,-1,-1],"split_conditions":[1E0,-5.1589537E-2,1E0,-5.1479485E-2,5.9319675E-2],"split_indices":[1,0,3,0,0],"split_type":[0,0,0,0,0],"sum_hessian":[3.2314583E3,1.3820632E3,1.8493951E3,3.4581097E2,1.5035841E3],"tree_param":{"num_deleted":"0","num_feature":"17","num_nodes":"5","size_leaf_vector":"1"}},{"base_weights":[1.2570957E-4,-5.158961E-2,3.858398E-1,5.9319448E-2,-5.147956E-2],"categories":[],"categories_nodes":[],"categories_segments":[],"categories_sizes":[],"default_left":[0,0,0,0,0],"id":125,"left_children":[1,-1,3,-1,-1],"loss_changes":[6.4358624E2,0E0,3.458664E2,0E0,0E0],"parents":[2147483647,0,0,2,2],"right_children":[2,-1,4,-1,-1],"split_conditions":[1E0,-5.158961E-2,1E0,5.9319448E-2,-5.147956E-2],"split_indices":[1,0,3,0,0],"split_type":[0,0,0,0,0],"sum_hessian":[3.2315027E3,1.3821185E3,1.8493842E3,1.5035588E3,3.4582532E2],"tree_param":{"num_deleted":"0","num_feature":"17","num_nodes":"5","size_leaf_vector":"1"}},{"base_weights":[-4.7561247E-5,2.85228E-1,-5.1427778E-2,-5.1350918E-2,5.010838E-1,5.8330994E-2,-5.1029064E-2],"categories":[],"categories_nodes":[],"categories_segments":[],"categories_sizes":[],"default_left":[0,0,0,0,0,0,0],"id":126,"left_children":[1,3,-1,-1,5,-1,-1],"loss_changes":[4.3577585E2,3.296732E2,0E0,0E0,1.2542639E2,0E0,0E0],"parents":[2147483647,0,0,1,1,4,4],"right_children":[2,4,-1,-1,6,-1,-1],"split_conditions":[1E0,1E0,-5.1427778E-2,-5.1350918E-2,1E0,5.8330994E-2,-5.1029064E-2],"split_indices":[0,3,0,0,1,0,0],"split_type":[0,0,0,0,0,0,0],"sum_hessian":[2.9685781E3,1.9096317E3,1.0589464E3,4.0598294E2,1.5036488E3,1.3909832E3,1.12665596E2],"tree_param":{"num_deleted":"0","num_feature":"17","num_nodes":"7","size_leaf_vector":"1"}},{"base_weights":[-8.5617714E-5,-5.142198E-2,2.4060932E-1,-5.1357236E-2,4.432265E-1,5.8329113E-2,-5.122734E-2],"categories":[],"categories_nodes":[],"categories_segments":[],"categories_sizes":[],"default_left":[0,0,0,0,0,0,0],"id":127,"left_children":[1,-1,3,-1,5,-1,-1],"loss_changes":[3.6757013E2,0E0,3.0938306E2,0E0,2.1379263E2,0E0,0E0],"parents":[2147483647,0,0,2,2,4,4],"right_children":[2,-1,4,-1,6,-1,-1],"split_conditions":[1E0,-5.142198E-2,1E0,-5.1357236E-2,1E0,5.8329113E-2,-5.122734E-2],"split_indices":[3,0,0,0,1,0,0],"split_type":[0,0,0,0,0,0,0],"sum_hessian":[2.9682764E3,9.46142E2,2.0221343E3,4.2789368E2,1.5942406E3,1.3907615E3,2.0347914E2],"tree_param":{"num_deleted":"0","num_feature":"17","num_nodes":"7","size_leaf_vector":"1"}},{"base_weights":[-4.8229398E-5,2.852274E-1,-5.14278E-2,5.161057E-1,-5.1357318E-2,5.833112E-2,-5.0922394E-2],"categories":[],"categories_nodes":[],"categories_segments":[],"categories_sizes":[],"default_left":[0,0,0,0,0,0,0],"id":128,"left_children":[1,3,-1,5,-1,-1,-1],"loss_changes":[4.3578137E2,3.5263928E2,0E0,1.0246948E2,0E0,0E0,0E0],"parents":[2147483647,0,0,1,1,3,3],"right_children":[2,4,-1,6,-1,-1,-1],"split_conditions":[1E0,1E0,-5.14278E-2,1E0,-5.1357318E-2,5.833112E-2,-5.0922394E-2],"split_indices":[0,3,0,1,0,0,0],"split_type":[0,0,0,0,0,0,0],"sum_hessian":[2.9686177E3,1.9096565E3,1.0589613E3,1.481741E3,4.279155E2,1.3909987E3,9.074232E1],"tree_param":{"num_deleted":"0","num_feature":"17","num_nodes":"7","size_leaf_vector":"1"}},{"base_weights":[-1.1747051E-4,2.4058278E-1,-5.1422127E-2,-5.1351E-2,4.3022308E-1,5.832885E-2,-5.1251512E-2],"categories":[],"categories_nodes":[],"categories_segments":[],"categories_sizes":[],"default_left":[0,0,0,0,0,0,0],"id":129,"left_children":[1,3,-1,-1,5,-1,-1],"loss_changes":[3.6756976E2,2.8954492E2,0E0,0E0,2.3365497E2,0E0,0E0],"parents":[2147483647,0,0,1,1,4,4],"right_children":[2,4,-1,-1,6,-1,-1],"split_conditions":[1E0,1E0,-5.1422127E-2,-5.1351E-2,1E0,5.832885E-2,-5.1251512E-2],"split_indices":[3,0,0,0,1,0,0],"split_type":[0,0,0,0,0,0,0],"sum_hessian":[2.968383E3,2.0221547E3,9.462284E2,4.0600266E2,1.616152E3,1.3907306E3,2.2542136E2],"tree_param":{"num_deleted":"0","num_feature":"17","num_nodes":"7","size_leaf_vector":"1"}},{"base_weights":[1.580222E-4,-5.143548E-2,3.8042068E-1,-5.1315196E-2,5.8335412E-2],"categories":[],"categories_nodes":[],"categories_segments":[],"categories_sizes":[],"default_left":[0,0,0,0,0],"id":130,"left_children":[1,-1,3,-1,-1],"loss_changes":[5.812056E2,0E0,3.1005225E2,0E0,0E0],"parents":[2147483647,0,0,2,2],"right_children":[2,-1,4,-1,-1],"split_conditions":[1E0,-5.143548E-2,1E0,-5.1315196E-2,5.8335412E-2],"split_indices":[1,0,3,0,0],"split_type":[0,0,0,0,0],"sum_hessian":[2.9686392E3,1.2614656E3,1.7071736E3,3.1566843E2,1.3915051E3],"tree_param":{"num_deleted":"0","num_feature":"17","num_nodes":"5","size_leaf_vector":"1"}},{"base_weights":[1.4076657E-4,-5.143555E-2,3.8040903E-1,5.8335196E-2,-5.1315267E-2],"categories":[],"categories_nodes":[],"categories_segments":[],"categories_sizes":[],"default_left":[0,0,0,0,0],"id":131,"left_children":[1,-1,3,-1,-1],"loss_changes":[5.81203E2,0E0,3.1006097E2,0E0,0E0],"parents":[2147483647,0,0,2,2],"right_children":[2,-1,4,-1,-1],"split_conditions":[1E0,-5.143555E-2,1E0,5.8335196E-2,-5.1315267E-2],"split_indices":[1,0,3,0,0],"split_type":[0,0,0,0,0],"sum_hessian":[2.968678E3,1.2615162E3,1.7071619E3,1.3914802E3,3.1568155E2],"tree_param":{"num_deleted":"0","num_feature":"17","num_nodes":"5","size_leaf_vector":"1"}},{"base_weights":[-5.2904204E-5,2.8187802E-1,-5.1286217E-2,-5.1202107E-2,4.940136E-1,5.745802E-2,-5.0850302E-2],"categories":[],"categories_nodes":[],"categories_segments":[],"categories_sizes":[],"default_left":[0,0,0,0,0,0,0],"id":132,"left_children":[1,3,-1,-1,5,-1,-1],"loss_changes":[3.9401886E2,2.96414E2,0E0,0E0,1.12418396E2,0E0,0E0],"parents":[2147483647,0,0,1,1,4,4],"right_children":[2,4,-1,-1,6,-1,-1],"split_conditions":[1E0,1E0,-5.1286217E-2,-5.1202107E-2,1E0,5.745802E-2,-5.0850302E-2],"split_indices":[0,3,0,0,1,0,0],"split_type":[0,0,0,0,0,0,0],"sum_hessian":[2.7233257E3,1.7575272E3,9.657984E2,3.7029956E2,1.3872277E3,1.284432E3,1.02795654E2],"tree_param":{"num_deleted":"0","num_feature":"17","num_nodes":"7","size_leaf_vector":"1"}},{"base_weights":[-9.733779E-5,-5.127989E-2,2.3789905E-1,-5.120903E-2,4.3725786E-1,5.7456147E-2,-5.1066954E-2],"categories":[],"categories_nodes":[],"categories_segments":[],"categories_sizes":[],"default_left":[0,0,0,0,0,0,0],"id":133,"left_children":[1,-1,3,-1,5,-1,-1],"loss_changes":[3.3250946E2,0E0,